0.037117634	0.041520167	-0.018913006	-0.037519287	-0.04196594
0.041786004	-0.040274	-0.023560131	0.048794817	0.0214524
-0.028684752	0.04028896	0.02718837	-0.009134269	-0.010154887
-1.5890075	-1.6100048	1.6119462	-1.5939602	1.592619
-0.041722964	0.026003603	-0.04571208	0.008268964	0.037946906
0.018818373	-0.031331576	0.027056232	0.0052873865	-0.0054808673
0.03123237	0.00272024	0.025622433	0.035498947	0.00811184
0.020293772	0.020261746	0.004036258	0.030699158	-0.008765209
-8.7855195e-05	0.006985542	-0.0141952345	-0.030671433	-0.01368768
-0.03777913	0.011623371	0.046772648	-0.019631792	0.04749738
-0.031285234	0.0033951	0.028180612	-0.0015162312	-0.019089201
-0.04043019	0.036763135	-0.045970023	-0.024517441	-0.0014910102
0.0012663605	0.03484687	0.006395803	-0.014171346	-0.0022896288
-0.038782407	0.0336694	-0.03342537	-0.044105936	-0.0015997998
0.02941335	-0.008798478	-0.00017493684	-0.030563798	0.0007653744
-0.01861484	-0.035968147	0.006587468	0.038501766	0.04695921
-0.03682763	0.037445705	0.0030809809	-0.005233408	-0.030259326
-0.025482215	-0.0019281971	-0.028244158	0.026724894	-0.028155565
0.031137515	0.03149301	-0.023193646	-0.040705465	-0.0274001
0.0033785065	0.013851749	0.031110318	-0.029145429	0.00484222
0.005332291	0.00013379008	-0.024426544	-0.026768161	-0.044352602
-0.014844798	0.04379834	-0.023631835	-0.0051865354	-0.0057709105
0.035025883	0.040432066	0.005762156	0.008804148	0.02538244
0.0009170508	0.033053957	0.018650431	-0.0316962	-0.02291124
0.0472115	0.012405574	-0.024969101	-0.005484987	0.035052385
-0.022240754	0.012489584	0.018066194	0.012327729	0.0004339828
0.007534532	0.039559443	0.0227304	0.023323098	0.037515696
0.011502633	-0.03012471	-0.018782035	0.01720165	-0.018864712
-0.01609757	-0.0029519661	-0.021980364	-0.014225942	-0.037646104
0.032995634	0.016865406	0.036674388	0.0056654047	-0.020921495
0.04791749	-0.0429881	0.039810564	0.043516528	-0.004454922
0.004342648	-0.027815597	-0.016804924	0.0018310467	0.0002864169
-0.039311014	-0.019597387	-0.024023175	0.019184362	0.022475306
0.017976578	0.024324944	-0.008562224	0.022756254	0.023963472
0.033715356	0.038583446	-0.009359695	0.040260162	-0.0028071404
-0.0065032137	0.016207341	-0.010897218	0.0017532062	0.01765427
-0.04996288	0.013612319	-0.012083113	-0.0049492233	-0.0021887906
0.033573475	-0.039622676	0.019921806	-0.031018496	0.013819423
-0.034467936	-0.02893938	-0.0018921271	-0.0039770007	-0.017190587
0.014948914	0.0038708837	0.0024907403	0.032128394	-0.031647604
-0.019243885	0.036687102	0.04548982	0.037797716	-0.04985398
-0.013725785	0.0011788529	0.022488061	0.020156907	-0.005354394
-1.5695072	1.6636379	-1.6427372	-1.6496439	-1.6328241
-1.5956677	1.5848485	-1.6239294	1.5629258	1.5617245
0.01464365	-0.029641466	0.024378635	-0.02081364	-0.016707784
0.012317315	-0.012687166	0.018148484	-0.010947181	-0.0055348226
-1.5846611	1.6138419	-1.6465567	-1.6180122	-1.6176848
1.6132996	1.6136299	1.6565264	1.6138579	-1.6818855
-0.021863366	0.0016859174	0.031513523	-0.014523067	-0.048225906
1.5782548	1.6558961	-1.6436642	-1.5821031	1.6001275
-1.6034127	-1.6536497	1.5929784	1.6494985	-1.6227399
-0.01623677	-0.0024259686	-0.034336507	-0.029109513	-0.0039801
1.6663524	1.6446973	-1.5978373	1.5949906	1.6121354
-1.1182935	1.073837	-1.0668672	1.0467776	1.1057245
-1.588951	1.628794	1.6146972	1.6397446	-1.6065124
1.6144718	-1.6174163	1.5720245	1.6110423	-1.6510326
1.544687	-1.5867372	1.5563966	1.5302311	-1.5650641
-1.6770383	-1.5997515	1.6217536	-1.6227385	1.6008786
-1.5765548	1.5982913	1.5545812	-1.6169991	1.6014322
0.008529879	0.04295503	-0.027311815	-0.035345115	0.021872196
-0.010132253	0.046349276	-0.035246253	-0.013752259	0.04734734
-1.5758164	1.6330507	1.5712024	-1.6142786	-1.651232
-0.028420446	-0.006055273	0.011045789	0.035955016	-0.0337854
0.63505954	0.61753875	-0.62663203	-0.6178688	-0.64629096
1.59814	-1.6265293	-1.6106669	-1.636063	-1.6205999
0.8755743	0.8267068	0.8810173	0.83575386	0.8866124
-1.6143839	-1.6249906	1.6254423	-1.6345853	-1.6177015
1.3742265	1.3752161	1.3392836	1.3398117	-1.3571651
1.3706273	1.4318322	1.3414575	1.4282118	-1.3649838
-1.0324082	1.0841485	0.9850374	-1.0729568	1.0013363
1.6427824	-1.6696072	1.636031	1.6374091	1.6284609
1.5739201	1.6088086	1.6031793	1.5340188	-1.5861773
-1.6006149	-1.532321	-1.6044096	-1.5301616	1.5549126
-1.5796956	1.5605458	1.5734508	1.5847378	1.5567027
1.5913401	-1.5873051	-1.5864143	1.571734	-1.6071408
-1.5304703	1.5327454	1.5463532	-1.5529027	1.5238124
1.5592123	1.5920014	1.5631195	1.5979666	1.5237045
-0.035246335	-0.041289557	-0.026684392	-0.014787696	-0.018446278
-1.5296422	1.5173055	1.5038934	-1.4487028	1.4912918
-1.4235952	1.4382908	-1.4739403	-1.455628	-1.4594169
-0.5542151	0.47452402	0.5602173	-0.56261843	0.5366833
0.027272511	0.015874293	0.04048885	-0.008768618	0.042267155
-0.50034297	0.45164037	0.46561182	-0.52150536	0.5366505
-0.5344202	0.56643784	0.49257967	-0.48666397	0.5410162
-0.559852	0.5545262	0.48306257	-0.5276974	0.55767983
-1.5136613	1.6004107	-1.6404159	-1.6014539	1.5909998
-1.604354	1.575719	1.55518	1.5608088	1.5334177
1.2140055	1.2869083	1.2606136	1.2672114	-1.2704496
1.5388414	1.482551	-1.5561866	1.5153567	-1.572369
-0.03911624	0.02457105	-0.0025050268	-0.024807071	-0.009698499
1.2190604	-1.2151724	1.2377594	-1.1597629	-1.2156062
1.5601944	1.5509298	-1.6501749	-1.6408461	1.5862561
-0.41852835	0.4592439	0.46921113	-0.4905854	0.45596904
0.0155332945	-0.012940288	0.045294236	0.028459977	-0.014356922
0.014769081	-0.00077886507	0.013505284	-0.04275036	0.010791741
1.192008	1.1716129	1.2242433	1.208371	-1.1720277
0.016696941	0.027459394	0.021410454	0.03600535	-0.0010449179
-0.016500533	-0.014449932	0.012279294	-0.0015654936	-0.0061526895
1.5871546	1.5002067	1.5352049	-1.5807444	-1.568715
-1.2888368	-1.2478671	1.267286	1.2768495	1.3077368
-0.5908165	0.66149616	0.6120606	-0.6474598	0.6689487
-0.4806458	0.4404826	0.43239924	-0.4459428	0.50559443
-0.015768696	-0.042467345	0.041187573	-0.013093077	-0.045766618
-0.4966681	0.43790564	0.47475374	-0.46613437	0.43862823
0.002118647	0.03195088	-0.035694133	0.020461325	0.018332932
-1.588498	1.5974152	-1.576181	-1.5947024	1.6085784
-0.43899035	0.44730568	0.42571935	-0.37481284	0.44047138
-0.021319402	0.004136421	-0.040603638	0.00040664524	-0.035845805
-0.04548335	-0.027595913	-0.040494166	0.035908546	0.03460704
0.0035571232	-0.030900955	0.0358429	-0.044623353	0.012889456
-0.42469794	0.4297853	0.45247883	-0.3630377	0.37788314
-1.5509964	-1.5194565	-1.5530248	1.502479	-1.50432
-0.5661977	0.64960736	0.5903422	-0.64342934	0.61488456
-0.3944972	0.4306289	0.45687544	-0.45373505	0.39163324
-0.4469774	0.40259382	0.41613662	-0.43947682	0.4116908
1.5796472	1.6375792	1.5755124	-1.585572	-1.6016167
-0.61547077	0.60451514	0.61138695	-0.58357835	0.56312406
-1.1008456	-1.1328534	1.1530626	1.1628087	1.1344272
-0.42565417	0.41476133	0.32721314	-0.35605058	0.3724713
-0.94362724	-0.9512433	-0.96640056	1.0063313	-0.9693629
0.021106508	-0.028688777	0.03765646	-0.0073618516	-0.04404844
-1.5253699	-1.5129908	1.5173776	-1.4855005	1.5244881
-1.3361617	-1.3378146	-1.3361359	-1.3861042	1.3845376
-0.38631573	0.40655616	0.37841424	-0.3865443	0.36933973
-0.38606194	0.43430442	0.4217942	-0.40469408	0.38933656
-0.9066903	0.83021474	0.8940332	-0.82165205	0.90437275
-0.4342649	0.44409972	0.47265774	0.48079646	-0.41733548
-0.39660025	0.35493362	0.4138436	-0.3886617	0.35565302
1.5734608	1.5627484	-1.5861404	-1.58697	1.5435041
-0.95543545	0.91220146	0.92880076	-0.9593825	0.94189674
-0.3573001	0.3941966	0.34571308	-0.39521933	0.43205976
1.4933785	1.534509	1.5703758	-1.539908	1.5251547
0.038690988	-0.043053485	-0.027039338	-0.039813768	0.043998014
0.047420684	0.009176113	0.03760341	0.015668128	0.019606318
-0.4042994	0.38638493	0.37335297	-0.38571084	0.37278792
-0.5401262	0.5005526	0.5366595	-0.48322347	0.56540424
0.045398984	-0.024087751	-0.006135702	-0.022062575	0.04585669
-1.0210776	1.0701973	1.0601492	-1.0161036	1.0722388
-0.73416495	0.7605493	0.7080729	-0.74605036	0.7362893
-1.4982581	1.464361	1.4660356	-1.4787487	1.4584345
-0.31275994	0.3537233	0.3720732	-0.3039996	0.33175477
1.1605775	1.1635804	1.1716132	1.1245738	-1.1873221
-0.3772625	0.43670997	-0.38921627	0.34178376	-0.42005974
-0.34568197	0.3090534	-0.32712948	0.3342214	-0.36008698
-0.28998956	0.36007023	-0.32719466	0.347063	-0.352248
0.013075475	0.0010294691	-0.019582128	-0.048928726	-0.033607602
1.3993728	1.306262	1.3799945	1.3419824	-1.3608725
1.6077125	-1.5322797	-1.5561539	1.5653694	1.55787
0.884146	0.9723851	-0.9381574	0.9813203	-0.9408807
1.6446776	1.6565386	-1.6229562	-1.6256297	1.6230175
-0.042982113	0.029510174	0.00013182312	0.028912153	0.029615644
0.7567707	-0.7705513	-0.7659961	0.74856675	0.7434599
0.013387698	0.021383457	-0.04211887	0.0053332485	-0.027542116
0.78173804	-0.78700376	-0.77660334	0.81836987	0.831186
-1.6500874	1.6517928	-1.5986586	-1.5969216	1.5958896
1.6318905	-1.5698907	1.6307796	1.5794847	1.576407
0.012842185	-0.004661052	0.033866856	0.001738795	-0.012099811
-0.7810828	-0.738465	0.8001749	0.7957254	-0.78450394
-0.0433573	0.0011016726	0.027986709	0.016534496	-0.04295174
0.0019662287	-0.020149259	-0.016448008	-0.0019230014	-0.018251218
0.017302008	-0.031948827	-0.0057590674	-0.016067287	-0.0012143806
1.6536033	1.6056607	1.6438495	1.6628475	1.5684096
-1.6518989	-1.6065407	1.6524163	1.6408526	-1.5607251
-0.020920694	-0.010172634	-0.01329671	-0.0060533867	0.00075655535
0.0074802213	-0.030959997	0.029557921	0.0006050138	0.023823276
1.569665	1.5218285	-1.5441189	-1.5758287	1.5842026
-1.6211293	-1.6252565	-1.5862557	-1.6334724	1.6242791
1.6592723	1.6468607	-1.6680608	-1.6369239	-1.6184709
1.6206229	1.610999	-1.6536963	-1.6124438	1.5837013
1.6298236	-1.6084628	-1.6651084	-1.6502199	1.5722429
1.5991299	1.6240853	-1.608077	-1.5850346	-1.5464549
-1.593079	1.5724477	-1.5696797	-1.5737873	1.5190547
0.36559412	-0.3401348	-0.35373116	0.32426965	-0.37999463
0.015262872	0.014856936	-0.00079716195	0.019442352	-0.025749493
1.6496028	1.6148758	1.6316699	-1.6022571	-1.6222275
-1.674214	1.644215	1.5921754	-1.6539716	1.6171908
-1.5725238	-1.6342828	1.620621	-1.5928868	-1.6305919
-1.626834	-1.6019111	1.6556053	-1.6133573	1.6247084
-1.6611236	1.6085812	1.6114031	-1.637226	-1.6343625
1.4871504	-1.4832462	-1.5424467	1.4870383	1.5383554
1.6456105	-1.6360235	-1.6446248	-1.6140782	-1.5801731
1.6307272	1.6252759	-1.5855639	1.6224818	1.6503315
1.642446	-1.6512504	1.6086055	1.6555033	-1.6244394
0.004433445	-0.005158924	-0.0088414885	-0.020194506	0.026790027
-1.563205	1.6582683	1.630232	-1.553093	-1.6101313
0.019286081	0.014639005	-0.007172031	-0.028510738	0.007821023
0.01238177	0.009556748	-0.017173577	0.048164796	-0.02193365
-1.5802144	1.6449175	-1.5873693	-1.5854414	1.6284146
1.5586177	-1.579861	-1.6008347	-1.5916786	-1.6469452
1.6671456	-1.5890515	-1.6150616	1.5979728	-1.6373713
1.6607326	1.6055082	1.6421245	1.5994322	-1.622568
1.5994176	1.57247	-1.6228745	1.585175	-1.6165007
-1.6316081	1.5917087	-1.6243674	1.6214716	-1.6276441
1.6084055	-1.6045535	1.6740232	1.6084558	-1.6228248
-1.5802248	1.6056954	-1.5809691	1.6259727	1.6318625
1.5748578	1.6163152	1.6039535	1.5853603	-1.5564704
-1.6351943	-1.636939	1.6000931	1.6018494	-1.6263951
-1.579666	1.5944265	1.616685	1.6401907	-1.6653397
-1.6459486	-1.6489228	1.6864663	1.617793	1.6156033
-1.5779476	1.6020733	-1.5529414	-1.5924528	1.5748887
-1.6436118	1.6238971	-1.6251559	-1.6220905	-1.617804
1.4736621	1.4792486	-1.460693	1.5379323	1.4844384
1.6424414	1.6417636	-1.6478254	-1.639032	-1.6307397
-1.5973797	1.5856103	1.5913581	-1.65259	1.6392797
1.5763917	1.5677865	1.604042	-1.6102353	-1.6672276
-1.5986995	-1.5897754	-1.6379738	-1.6086344	-1.584423
-1.6200172	1.5765095	1.629966	1.5779132	1.635766
1.6154641	-1.6665472	1.6131216	1.6385206	-1.6548287
-0.024900334	-0.0018894611	0.032944065	0.02490369	-0.024951395
1.5746834	-1.5036523	-1.5890603	1.5697829	-1.50134
-1.643097	-1.6535676	-1.6463404	-1.6249814	-1.6462502
1.6348578	1.6031321	-1.6120635	1.6444465	-1.5793656
-0.0023041256	0.04061992	0.046134006	0.0045878403	-0.042683113
-0.011385597	-0.03174113	0.00651139	0.012435339	-0.0329592
1.6446635	1.5960953	1.6204298	1.5893853	-1.6220968
1.6076802	-1.6018246	1.654426	1.6443002	1.6189977
-1.601887	1.5937628	-1.639989	-1.6221021	1.6748185
1.6024976	1.5986316	1.613204	-1.5832123	-1.5895362
0.001056362	0.04040252	0.026018132	0.03222021	0.04806589
-1.6137531	1.6203218	-1.6116832	1.6037085	-1.6231507
-0.019490846	0.031530574	-0.0046630134	0.014833689	0.015539255
-1.6543667	-1.6515561	1.6515179	1.6258315	-1.6371843
0.03132156	-0.0027014837	-0.004230164	-0.04665157	-0.038603902
-0.044912327	-0.026748776	0.027110104	0.009635173	0.005943071
1.5966566	1.636738	-1.6464812	-1.5843077	-1.6118925
-1.6307547	-1.5794456	-1.6121581	1.5968294	-1.6254727
-1.5821979	-1.5467545	-1.5352598	-1.6218395	-1.60715
-1.6430212	1.6587695	-1.5870014	-1.6072628	1.6539526
0.9290384	0.91299766	0.8649357	-0.91099524	-0.88064957
-1.652607	1.6189084	-1.5631692	1.6010536	1.6234713
1.6570132	-1.6419085	1.6358294	-1.6105679	1.6803479
1.6319116	-1.6775824	-1.5882468	-1.6268667	-1.5665504
1.6005552	-1.6309885	-1.6439482	-1.5834812	1.6089647
-1.6464746	1.6133701	-1.6586692	1.6110215	-1.5671372
-0.009495139	-0.0077483654	0.021549191	0.0029689893	0.009954311
1.6378617	1.6125276	-1.5706371	1.5724899	-1.6034787
1.619294	1.5889134	1.628415	-1.6466608	-1.6427757
1.5925457	1.6125239	1.63084	1.6419717	-1.6235805
-1.5662663	-1.6203942	-1.6028442	-1.6177689	-1.5944086
1.5457056	1.5873075	1.6059428	-1.6244198	1.6361667
0.0063362494	0.034522627	0.01400752	0.03259221	0.031506073
1.595817	1.6159868	1.6056724	-1.6797621	-1.6386551
0.04551528	-0.012159719	-0.026507292	0.023182228	-0.01643069
-1.6323385	-1.5602239	-1.663131	1.5836738	-1.6267035
1.5727879	-1.593656	-1.5439161	1.5514333	-1.5308886
1.6731257	-1.6218703	1.6111599	-1.6615336	-1.6721141
-0.036232125	-0.03880315	0.049583163	0.01521242	0.0099010095
1.5789163	1.6154807	-1.6323512	1.5864228	-1.5601901
0.015062851	0.015700473	0.0017465306	-0.012429089	0.0009099221
0.00065523386	0.032385383	-0.031260155	0.016941	0.045147825
-1.6288793	1.6419258	1.6689917	1.5965519	-1.6169587
1.5856774	1.6500208	-1.6057644	1.6040447	1.6007324
0.015288103	0.03701521	0.014853906	-0.01973722	-0.030304778
-0.0021421313	-0.0032829866	-0.03427992	0.012394249	-0.007755626
-1.6677841	-1.6367768	-1.6328461	1.6247689	1.6280221
-1.6489879	1.6529771	1.6034571	1.6247425	-1.6146369
-1.5640446	1.6353521	1.6660122	1.6082978	-1.5570081
1.6110665	-1.6431024	1.6465555	1.6602178	1.5888345
-1.632312	1.666831	1.6302408	1.5832847	-1.6372241
0.444372	0.40271848	-0.43409306	0.4322168	0.530636
-0.026671732	-0.032655418	0.018161703	0.047256198	0.025028158
-1.6249856	1.6590813	1.6010846	1.6405097	1.6208066
-1.6086246	1.6559787	1.6233157	1.6223699	-1.5796134
-0.39925918	0.46221915	-0.3772438	-0.46414125	0.43134004
0.010530256	-0.024056781	0.009917427	-0.002013646	0.021045934
-1.5991623	-1.6541095	-1.5938966	-1.5804648	1.6298457
-0.0019767769	-0.042412758	0.014217261	-0.022596478	0.03245083
-1.6543658	1.5701765	1.5538054	-1.6573257	1.5662768
-0.029899836	-0.023127342	-0.039862525	-0.01826676	0.045522477
-1.5673532	1.6074319	1.5573487	-1.6024565	-1.6059035
1.6507787	-1.6815495	-1.6074739	1.6503985	-1.581338
-1.5791708	-1.5715827	-1.6011343	1.6114213	1.6406769
-1.6231738	1.6262968	1.6358832	-1.576871	1.5836003
1.5901864	1.5877761	1.6246394	-1.6378498	-1.6526588
-1.5914495	1.5687861	1.6559728	-1.6366843	1.6367531
-0.04488337	0.03932346	0.045385513	-0.029456258	-0.00083195046
-1.536162	1.5546392	1.5385219	1.5774671	1.5686024
-0.46028268	-0.42546996	0.43954492	-0.42449194	0.47150105
-1.4814913	-1.5607197	1.521478	-1.5073614	1.5000225
-1.5928968	1.6052114	1.5805184	-1.6632314	1.5767763
-1.6006391	1.6694205	-1.647459	-1.6480873	-1.5958126
-1.6375635	1.6059676	1.5511769	-1.5506938	1.6043328
-1.6424413	-1.6517376	-1.5869869	-1.6202952	1.6195775
-0.01498418	0.034069292	0.02437947	0.02079482	0.012354274
1.6480856	1.6279745	1.667305	1.6261888	1.659931
1.476856	1.4931662	-1.5304083	1.5721557	-1.5640152
-1.6524582	-1.5691314	1.6431445	-1.5620403	-1.6057224
-0.045850564	0.023674373	-0.022805667	0.03857631	0.022167932
-1.6097	1.5645419	-1.6574488	-1.6315649	1.5999107
-1.6370308	-1.6558971	-1.5938722	-1.6023494	1.5975064
-1.670687	-1.617548	-1.6142743	-1.6791077	-1.6207628
-0.02683797	-0.007371437	0.028705541	-0.01983248	0.029543344
0.022108164	-0.0032313243	-0.015287291	0.019358624	-0.04648546
0.044199478	-0.04121872	0.0072456114	-0.033134595	0.012887564
-1.5755765	-1.5480555	-1.5105326	1.541429	1.5661722
1.6659989	-1.6392133	1.6372658	1.6225051	1.6165062
1.5984703	1.6540247	-1.5960904	-1.600816	1.6182743
1.5974857	1.6387303	-1.5893651	-1.6261771	1.6171013
1.6660773	1.6421341	1.6484106	1.663994	-1.6426493
-1.6027074	1.5778335	-1.6143843	1.597054	-1.5853496
-1.1103976	1.1349399	1.1135849	-1.1105709	-1.1113381
1.6469678	1.630143	-1.6310594	-1.6265609	-1.5982789
1.653642	-1.6791217	-1.6158515	-1.6086978	1.6159899
1.5634228	1.6039225	-1.5777493	-1.6387948	-1.5442581
-0.01187259	-0.027091492	0.03316016	-0.04235356	-0.04761715
-0.0074569806	-0.03569894	0.044599283	-0.041144192	-0.0108727105
-1.5368211	-1.6511369	-1.6403689	1.6117839	-1.6278431
0.35391647	-0.33994615	-0.34161714	0.3444205	-0.3243714
1.5987004	-1.6444261	-1.6121002	1.605223	1.5871382
-1.6425897	1.6968566	-1.6409882	1.6123048	-1.676973
1.5613426	1.6023283	-1.586669	-1.5957553	1.6110804
-1.6157144	1.6516557	-1.6299951	-1.6243705	1.6542116
-0.04287077	-0.043404818	0.03958029	-0.00849881	-0.044267368
-1.5913373	1.633628	1.5815208	1.6146396	-1.6052377
-1.6190029	1.5975996	1.5740536	1.6467252	1.6066846
1.5731388	-1.5564829	-1.6043339	1.6345531	-1.6510391
0.040360007	0.02593619	-0.047673274	0.018456865	0.0066618323
0.013817754	-0.002015721	-0.007889103	-0.0074623227	-0.036785305
-0.6800941	-0.65771	0.6713543	-0.7359228	0.68284374
0.009346794	-0.028557694	0.03236201	-0.010641418	0.002248086
1.6136233	-1.6520954	-1.6022912	1.6461629	-1.5746657
1.606179	-1.6201812	-1.605269	1.6274862	-1.6350832
0.035519373	0.020017099	0.009654712	-0.028534723	0.027758244
1.6788847	-1.662779	1.6843014	-1.6565057	-1.5464681
0.005309023	-0.02312019	-0.035281874	0.033005033	0.012535561
-0.0043503535	-0.039911713	-0.03358779	0.008069913	0.03255417
-0.009828478	0.023798846	-0.013531894	-0.024315502	-0.01926056
1.6199797	1.5822647	-1.6254934	1.5969855	-1.5921634
1.5548495	1.6225209	-1.5931644	1.6038891	-1.6068009
1.531533	1.6107684	-1.5704367	1.5887076	-1.597581
1.5583929	1.5727046	-1.6291687	1.5617794	-1.5841483
0.027864765	-0.020339537	-0.009432949	0.0055585504	-0.001576364
0.0060990197	-0.0108760875	0.014017067	0.02460516	-0.014348686
1.4617778	1.5366056	-1.4836999	1.5099533	-1.4447759
0.025016855	0.039089654	-0.013506543	-0.027259981	0.040332463
0.045113776	-0.0022101514	0.046822105	-0.0425962	-0.0034612305
-0.031766094	0.007566929	-0.01909101	-0.017757215	0.015906919
1.6134926	1.5741415	-1.5216166	1.5565349	-1.5363373
1.4467806	1.4505329	-1.5163946	1.4368973	-1.4655423
-1.5503584	-1.6009628	1.5344193	-1.5716822	-1.5467656
0.0117715895	-0.02406433	0.018173546	-0.02613491	-0.0016620337
-0.01207104	-0.028306734	0.004318286	-0.026509417	-0.034759667
0.39440948	-0.38426778	-0.4666884	0.38432127	-0.45123196
-0.021844609	-0.0075798756	-0.0033052515	0.0049829395	-0.013477404
0.45119417	-0.46435946	-0.42793804	0.48837918	-0.41948253
0.88507944	0.9234366	-0.875791	-0.89185977	0.9365901
0.21489942	-0.19780008	-0.28701228	0.25656494	-0.278456
0.043056104	-0.02890463	-0.037342954	0.04221827	0.03672493
0.03867257	0.031879213	0.041255523	0.01044663	-0.006669473
0.21168219	-0.21402954	-0.19244611	0.16503063	-0.20673695
-0.025888456	-0.017408442	-0.044295203	-0.034470536	-0.00053985044
0.24108317	-0.20637237	-0.2301927	0.28701514	-0.27848205
0.14212088	-0.21351784	-0.18063691	0.21037424	-0.23532967
0.32726985	-0.30339628	-0.34839284	0.28481367	-0.30758548
-0.04180163	0.030484233	-0.013660908	-0.022662295	-0.021906186
0.23924883	-0.17953676	-0.180848	0.17184041	-0.20644733
-1.5921326	-1.6098722	1.6100881	1.653293	-1.6418163
-1.6220303	-1.6487677	1.6059128	1.6320677	-1.632003
0.45406124	0.3955122	-0.37385803	-0.4046434	0.37424415
-1.6144526	-1.6288662	1.5967231	1.5722001	-1.5822829
-1.5737497	1.5896912	-1.5665946	-1.571101	-1.6318058
0.0025926717	0.008035801	-0.017829765	-0.010175802	-0.011384618
1.2719504	-1.2731037	-1.3405573	-1.2915393	1.3332543
-0.8376476	-0.8756253	0.8491731	-0.8331408	-0.85803574
-0.9331011	-0.87356126	0.93545187	-0.92526996	-0.8552921
-0.7137354	-0.7593258	0.7657451	-0.7282311	-0.7390885
-0.8076281	-0.81740373	0.7664051	-0.76984537	-0.8241356
-0.76780915	-0.70163035	0.77276033	-0.72262055	-0.7624485
-0.0349496	0.0038490295	-0.033538237	0.036109928	0.011514496
-0.3450169	-0.40312952	0.36021262	-0.35030708	-0.38014534
-0.30072275	-0.35253483	0.29795492	-0.3423406	-0.2868095
-0.4374214	-0.40530726	0.42262065	-0.49298525	-0.40510163
-0.24791907	-0.27106088	0.24526533	-0.28861174	-0.24926452
-0.28993723	-0.34229425	0.3452854	-0.34005144	-0.32776883
1.617401	-1.6129239	-1.6206238	1.628069	-1.6105565
0.82469285	0.7525063	-0.78618264	0.7694214	0.7358604
-1.5694283	1.5850921	1.580409	-1.591769	-1.5639384
0.033414256	0.026020382	0.04678284	-0.033093978	0.04243419
-1.5881698	1.5271178	1.5862033	-1.5555625	-1.544694
-1.6316736	1.6366127	1.6067808	1.6043237	1.6103358
0.032531586	0.005355619	0.028812338	0.040454376	0.046076667
-1.6471235	1.578787	-1.5820935	1.5613302	1.6305891
-0.032116532	0.024918046	-0.010385394	-0.021242334	0.0010770075
-1.5236135	1.5254178	1.5799483	-1.5836451	-1.5932332
-1.5341126	1.4924823	1.5774332	-1.5356334	-1.5204195
-1.596006	1.5612253	1.4929311	-1.4862772	-1.5047535
-1.5906289	1.6296651	-1.5750263	1.6042114	1.604257
-1.5155478	1.5010947	1.5220442	-1.5633594	-1.5396944
-1.648897	1.6044177	-1.5765437	1.5603896	1.6592758
-0.02175944	0.028936353	0.013917398	0.009633016	-0.018973578
-1.5404619	1.5328684	1.5257235	-1.5614032	-1.5233153
-1.5693539	1.5274016	1.5494645	-1.4964006	-1.544353
-1.5874518	1.6359572	-1.5771928	1.6472701	1.5638013
-1.5340539	1.5262789	1.5519197	-1.5105765	-1.5447154
0.046495486	-0.01033739	0.033125494	-0.04280908	-0.033659853
-0.014248479	-0.019018937	-0.028118027	-0.0050052404	0.03455062
1.5174495	-1.4704853	1.4594034	-1.4590819	1.5072662
0.48052093	0.48600098	0.43520102	0.44883257	0.43799815
0.35998797	0.43604505	0.4426548	0.4162444	0.39801133
1.6443291	1.6613244	-1.6491873	-1.6412625	-1.5827578
0.40592232	0.34899572	0.41239288	0.30826434	0.37059993
-0.015297543	-0.004148256	0.011134662	-0.0364496	-0.044561055
-0.7406676	0.76655036	0.77538675	-0.7208682	0.78358597
-1.5686296	1.6081992	1.6411372	1.6524755	1.6378461
-0.008196124	0.0071122264	-0.02752405	0.030056149	-0.02463749
1.0408856	1.0519471	0.99703217	0.97587276	0.97563195
0.49294254	0.49114236	0.51163274	0.5258253	0.46855387
0.37340352	0.3333828	0.40049496	0.4033946	0.41069126
0.34531653	0.33260018	0.30833662	0.33822227	0.380552
-0.0076554045	-0.012165248	0.03817041	0.04853754	-0.021171559
0.30670843	0.3277663	0.32166943	0.3562789	0.39188638
0.016643409	-0.023093974	0.03484768	-0.04570645	-0.032188073
1.581944	1.5311958	1.5712378	1.6157122	1.5951523
1.5593009	-1.5818039	-1.5648488	-1.5595299	1.5611856
-1.5641356	-1.6030655	1.5693221	-1.5876992	1.5746375
-1.2514951	-1.2821003	-1.2325689	-1.233726	-1.2723364
1.5697151	-1.6338102	-1.6145182	1.6404117	1.6148591
0.006980039	-0.003638912	0.00090334564	0.028046217	-0.035805263
0.91171664	-0.957889	-0.95103395	-0.9448323	0.91947997
0.72248566	-0.7265001	-0.68351716	-0.72038	0.7161019
1.0282526	-1.0324719	-1.0236574	-1.0770499	1.0144342
1.1842388	-1.158039	-1.1036284	-1.1656926	1.0861061
-1.5971451	1.5855323	-1.6053592	1.6324171	1.6305578
1.4970092	1.5230081	1.5139316	1.5562028	1.496738
0.9530344	-0.9775909	-0.9570984	-0.9780393	1.0147182
0.8768708	-0.8884636	-0.8652335	-0.87356746	0.84510154
1.5376277	1.5576035	-1.6309748	-1.6155365	-1.5971549
1.293616	-1.3146715	1.3477497	-1.3263075	1.2574581
-0.04200115	-0.0050951615	0.0063161626	-0.022628283	-0.01503811
-0.4381996	-0.43044192	0.4510015	-0.4274289	-0.47305787
0.64556736	0.59563625	-0.596163	0.6388766	-0.64035773
1.61569	1.5522391	-1.645152	1.6128109	1.640602
0.8967172	-0.9229102	0.89615613	-0.9154897	0.9333067
0.0069657164	-0.017354606	-0.02906021	0.02832295	0.0026677574
1.6185519	1.6227139	-1.621471	1.5919455	-1.5999147
1.494727	1.5143528	-1.4379437	-1.4708066	-1.4651134
-1.568422	1.647337	1.5666976	-1.6086001	-1.6324377
1.5994712	-1.5847213	-1.5707302	1.6030464	-1.583686
1.6237723	-1.5969242	1.5958077	1.594649	-1.5888213
0.010504983	-0.030907994	0.024812018	0.0054076836	-0.03056084
0.03428301	0.03611106	-0.005653452	0.0429135	0.048876178
-0.01746447	-0.006579064	-0.009574879	0.043162692	-0.043741237
-1.6127805	1.6533175	-1.6432183	-1.5594287	1.6164546
1.1736759	-1.1706679	1.1343269	-1.1788906	1.1447358
1.4999955	1.4911873	1.4261159	-1.5020223	1.4438634
1.4323615	-1.3756574	1.4260631	-1.4376382	1.4134809
0.020979127	0.012916573	-0.021871287	-0.031413134	0.016390365
-1.6001414	-1.5845327	1.6166184	1.6077827	-1.5771037
-0.023087656	0.043777417	0.022681717	0.029677812	0.023788456
-1.6593179	1.6221222	1.601286	1.631294	1.6052274
0.7716107	-0.71940285	0.76454216	-0.6900475	0.7067733
0.04435632	-0.031568743	-0.0082240105	0.0066425204	-0.021110296
1.5374696	1.5343157	-1.5866537	1.5834961	1.545135
0.7678555	-0.7728575	0.80727845	-0.81551534	0.8011728
0.04013676	-0.019534374	0.010445379	-0.032431103	0.0023995861
1.6168135	-1.5406944	-1.5912219	-1.5324036	1.5358009
0.6835804	-0.6769293	0.6613886	-0.6393062	0.6351192
0.7168195	-0.7031265	0.7502268	-0.7308084	0.6896008
0.04868615	0.00067793205	0.0022435896	0.00092983246	-0.026992524
1.595016	1.6161346	1.6284019	1.5953534	-1.6334536
0.025094157	0.018371986	-0.03008432	0.014231683	0.019143324
1.6649363	-1.6151463	-1.5794216	1.5961014	1.6603014
0.0039675236	0.016177382	0.00626247	-0.043538917	-0.049373783
-0.048304584	0.0033281222	-0.047540307	-0.024237467	-0.022521926
2.3274744	-2.32384	-2.397255	-2.287014	2.4070368
-1.6457783	1.5780903	1.6108526	1.6481875	-1.6193613
0.010483243	-0.03918823	0.018042777	0.034313094	-0.012308251
1.2617631	-1.2088038	1.2239175	-1.2637149	1.2082024
-0.009869255	0.016838584	-0.032244552	-0.002908241	0.03270806
-1.6298759	1.6325866	-1.6014689	1.6339958	-1.604832
0.6698309	-0.72247493	0.68418205	-0.65571976	0.70308036
-1.58967	1.6270518	-1.6117818	-1.5710043	1.6163218
1.5427295	1.5600277	-1.5319018	1.5788517	1.5818899
-1.4915951	-1.4906448	1.529796	1.4776914	-1.4411703
-1.6345125	-1.6411499	1.6131653	-1.5631181	-1.6085151
-0.0128526315	0.02623928	-0.025094485	-0.007182874	-0.00571388
-0.419926	-0.437359	-0.4637084	0.45505935	-0.402587
-1.6465449	-1.6167096	-1.6301844	-1.609313	1.6444014
1.6453665	1.5737002	1.6404222	-1.5957056	-1.6164705
-0.011501157	0.0021605298	0.028241016	0.031670526	-0.0035047142
-1.6433647	-1.6139249	-1.6668446	1.5812758	-1.5812033
-1.2820661	-1.2990246	1.291475	1.2705919	-1.345236
1.5830343	1.6136554	1.5869298	1.6067798	1.6262538
1.610387	-1.681436	1.6536583	-1.6163505	-1.6019692
0.025262501	-0.016598068	-0.026565349	0.025016103	-0.0077849627
-1.5923704	1.6037707	-1.6218773	1.5759704	-1.6233279
-1.6085659	-1.6397423	1.5996369	-1.6053354	-1.6223073
-1.6015214	1.6032538	-1.5691869	-1.5821886	-1.5361711
-0.036759175	0.045822132	-0.01923033	0.01572403	0.044488106
-1.5592779	-1.660492	1.6211573	-1.6060735	1.5708708
1.5970149	-1.6033328	-1.6011916	1.6619303	1.6160125
-1.6217947	-1.6828392	-1.6497741	-1.6493239	-1.6146165
1.5767788	-1.5693709	1.5892975	-1.5542462	1.5887978
1.6826079	-1.6639752	-1.6782513	-1.6506408	1.5584389
-1.2304457	-1.2005142	1.2227465	1.2467009	-1.1733241
-1.6717093	-1.6141839	-1.6479031	-1.5987843	-1.6833379
1.6226066	-1.6140902	1.6570281	1.6067841	-1.597057
-0.022858739	0.009659279	0.0012999661	0.04878738	0.0039909966
-1.5069529	1.5358204	-1.5466504	1.5321628	-1.4789314
1.6292443	-1.6477408	-1.6351167	-1.615883	-1.6156733
0.8803336	0.89147997	-0.8582801	0.93690556	0.89703816
-0.03170593	0.0074597374	-0.045600116	-0.010691453	-0.044739127
1.6555437	-1.6332893	-1.6307341	-1.6338235	1.5799714
0.46352017	-0.43980712	0.3989667	0.4295043	0.42401537
1.6420602	-1.5770258	1.6035391	-1.6568182	1.6212386
1.6499561	-1.6243247	1.6648465	1.6251912	1.5870148
-1.6266366	1.6034374	1.6312345	-1.6172191	1.6671617
1.6226786	-1.602065	1.6409575	-1.6475335	1.6202481
1.6412585	1.626342	1.6132342	-1.6208482	-1.6505804
-1.186242	-1.1308538	1.1385279	1.1980692	-1.2130554
-1.6227893	1.5819757	-1.613695	-1.6608354	-1.6147175
-0.043444194	-0.011305045	0.020063493	-0.035877753	0.030805897
0.042264823	-0.009151913	-0.008963633	-0.016982853	0.03407934
-1.2586375	-1.2011572	1.2133766	1.2159367	-1.185872
0.033725586	0.037019063	-0.024916137	-0.04498407	0.045504574
1.5720496	-1.584574	-1.5968922	-1.6128325	-1.6266286
-1.6299032	-1.6318654	-1.657591	-1.5362749	1.6475148
-1.6256884	1.6074212	-1.6433616	1.6324244	1.5796565
1.5792717	-1.5639416	1.5779715	-1.4913181	-1.5257452
-0.028635502	0.044819143	0.04032148	0.03897016	0.0249408
1.5407685	1.6105841	-1.6216326	1.6403706	-1.5812193
1.6423422	1.6211292	-1.6547754	1.6476955	-1.6481981
1.573156	1.611851	-1.6235904	1.6389079	-1.5935415
-1.6564257	-1.6484954	-1.6311132	-1.6056229	1.6174313
1.6047943	-1.685172	1.5883074	-1.6186705	-1.5833234
1.5954957	-1.6339577	-1.627996	1.6505191	1.627898
1.6186651	1.5829806	-1.663018	-1.5969619	1.5917871
1.6100026	-1.5929663	1.5612118	1.6057991	-1.6474324
-1.6257244	-1.6199143	-1.6096929	-1.6856116	1.5952778
-1.1812276	-1.1473863	1.1638826	1.1540488	-1.2103549
-1.6220798	1.5556651	1.5859364	-1.5774308	1.643504
-1.2622786	-1.283666	1.3142203	1.3231905	-1.3015454
1.6255577	1.6100134	1.5890077	1.6065086	-1.6097461
-0.048855245	-0.007749129	0.04484279	-0.03462361	0.017681945
0.021517564	-0.008508325	-0.010704756	0.0034620985	-0.014394306
1.618809	1.6436774	1.5895302	-1.6390481	1.6374971
-1.1352162	-1.0746956	1.1189312	1.0711396	-1.0639516
-1.1268595	-1.0867128	1.1567293	1.126733	-1.1517336
-1.596649	1.6519947	1.641121	-1.6362374	1.6523203
0.028139804	0.041677464	0.012685243	-0.019894779	0.033384252
1.5895618	1.58429	1.6202884	-1.5822835	-1.6244562
-1.5783263	-1.5892553	-1.5578207	-1.633944	-1.582094
1.670234	-1.6488284	1.6110212	1.618422	1.5576948
1.6131382	1.5985582	-1.6298434	1.6134748	1.6366407
-0.008790456	-0.03785354	-0.02774781	-0.0049355514	0.038305964
1.6347308	-1.6242293	-1.6800127	1.6212002	1.6503901
-0.014117126	0.02684399	0.006311723	0.0156298	0.029126344
-1.0456965	-0.9837171	1.0583982	1.0700077	-1.0733203
1.663491	1.6459248	-1.6614478	-1.5904135	-1.6510082
-1.0856874	-1.1478062	1.1733259	1.1230057	-1.1435677
-1.1332043	-1.1170567	1.1085027	1.1792338	-1.125624
-0.014947295	0.046580445	-0.039835323	-0.0441628	-0.0031233653
1.6146336	-1.6410561	1.5887874	1.639507	-1.635942
1.6201211	-1.6377671	-1.5797534	-1.6497263	1.6580262
-1.6222622	-1.6352029	-1.5772173	1.5972768	-1.5978843
0.017264936	-0.015302967	-0.009788226	-0.03648919	-0.009568475
-1.6475658	1.61181	-1.5891211	-1.6504365	1.6752291
-1.0654666	-1.1101968	1.1293224	1.0560732	-1.1285905
-1.6001441	1.6108829	-1.6275511	1.6348389	1.6298239
-1.1153501	-1.0570691	1.1163722	1.0711272	-1.1246862
-1.136105	-1.1146754	1.1086004	1.1602232	-1.1520883
-1.5286498	1.6172948	1.5231075	1.564158	1.5584601
-1.6550775	-1.6223315	-1.6109519	-1.6543076	-1.5961426
-1.0333025	-1.0586196	1.0552336	1.0606863	-1.0996296
-0.02489016	-0.00040908903	0.035608176	0.027396891	0.02336483
1.598711	-1.5384587	1.619453	-1.6532739	-1.6444983
1.6483989	1.6230526	1.6371807	-1.6639978	-1.6033452
-1.6306511	1.6451869	-1.6485953	-1.5872636	-1.5891811
0.0301201	-0.021840466	0.045211364	0.030169558	-0.04175643
0.022566643	-0.014250182	-0.014501296	0.031253602	0.013080265
1.6166341	1.5830781	-1.6027404	-1.6464623	-1.6272677
-1.6552197	1.6561973	-1.641245	1.6177431	1.6717992
-1.6098992	-1.5833405	-1.6385394	-1.6128775	-1.5922188
-1.6345361	-1.6539454	-1.6374435	-1.5770298	1.5921925
0.4375013	-0.42943737	-0.38553277	-0.4634147	-0.44359538
-1.6036844	-1.6207299	-1.6045505	-1.600811	-1.5951763
1.6280991	-1.6449994	-1.5840908	1.5538305	-1.6035273
-0.020200444	0.0016144738	0.034124803	0.049713586	-0.034748517
0.008896135	-0.03592081	0.016731631	0.047646534	-0.03516356
1.6210655	-1.5763276	1.6169538	-1.6500596	-1.6590452
-1.671142	1.6329674	-1.6589411	1.5754404	1.6514096
1.6063758	1.5771675	-1.6305729	1.5708196	-1.6177223
1.5969771	-1.6249621	-1.5819157	1.6237026	1.6355648
-0.037104525	-0.030512715	0.0027583726	0.027543668	-0.0042855963
-1.6204338	1.57455	1.617754	-1.56997	1.6286393
1.6047506	-1.645453	-1.6491915	1.6452568	1.5910025
1.6290079	-1.643309	-1.6041669	1.5645989	1.5774378
0.046950232	0.010317575	0.02342664	-0.0025809892	0.03784802
1.6101545	-1.6647861	-1.6339185	-1.646348	-1.6303669
1.6069585	-1.5474038	1.6058662	1.6264241	-1.6413754
1.5904636	-1.6119876	1.641943	-1.6134529	-1.6377406
0.04128741	-0.041051734	0.04810748	-0.040521204	-0.036380075
0.028840791	-0.04079486	0.02506623	0.029805992	0.028996293
-0.042158365	-0.039093673	-0.012433875	0.010867465	-0.007309068
1.3132529	-1.3259206	-1.3050978	-1.3167503	-1.2644975
-0.048538506	0.010458648	-0.031021107	-0.003174413	-0.049296677
-1.580202	1.5502661	-1.5054866	-1.5907369	1.5059756
1.0978869	-1.1037912	-1.1181765	1.1076928	1.0969304
-1.6130276	1.6290168	-1.623888	1.6376538	-1.5944166
-1.6507207	1.5747249	1.6234174	-1.6672873	-1.5845989
1.6485462	1.6610991	-1.5888262	-1.6537606	-1.5933968
1.6835052	1.5787823	-1.6640828	-1.6434662	-1.6250746
1.6112243	1.6179321	-1.5561775	1.6121812	-1.6541222
1.6105189	1.6324716	1.5919117	1.6374341	1.61954
0.013087515	-0.018972028	-0.026581263	0.024428833	-0.013153624
-1.6297485	-1.6207675	-1.605484	-1.6536533	1.6319484
0.03395846	0.044385765	0.013195399	-0.009808231	-0.04150151
-1.6352406	-1.6468366	1.5906595	1.6304457	-1.613435
-1.5752574	-1.6095467	1.5319471	1.5886582	1.613024
-1.5282168	-1.5554416	-1.5626644	1.5322442	1.5489566
0.48258865	-0.455185	-0.43026242	-0.40172303	0.452803
-1.6096627	-1.6340827	1.5569968	1.554777	1.6280271
-0.006993614	-0.0064571127	-0.042730488	0.03816885	-0.033230174
1.643548	-1.6446915	1.625908	-1.6024101	-1.6560043
1.6102548	1.6307433	-1.6458675	1.650554	-1.5920869
-1.5848256	1.6082114	1.5995163	1.5698705	1.618794
1.6753243	1.6065317	-1.6378711	1.6266532	-1.6271102
-1.6418273	-1.6474792	-1.6218402	1.6193932	-1.6627808
0.04473834	-0.023893595	-0.007502876	0.012771618	-0.025650252
-1.6192945	1.607345	1.6483667	-1.6408572	1.6470866
0.4558992	0.44158953	-0.43673673	0.42226645	0.4307153
0.045376208	0.036920976	0.0033700839	-0.023125006	0.022403788
-0.036330152	-0.023884118	0.01753677	-0.0228817	0.009876668
-1.6212745	1.5941625	1.6641273	1.655911	-1.6254272
-0.024648536	-0.0082019195	-0.009934235	-0.026619101	-0.042858362
0.043680105	0.015974019	0.024291787	-0.026872111	0.0059457645
0.0071742646	-0.047281623	-0.010885704	0.03514787	0.008635938
1.6047345	-1.6382675	1.5993315	1.6146808	1.5538985
-1.5943142	1.6017529	-1.5623996	-1.5686883	-1.5342171
-1.5588809	1.6012444	-1.5982553	-1.6103113	-1.5397354
-1.5459363	1.5006148	-1.5192192	-1.5147406	-1.5691218
-1.4900236	1.5259185	-1.5086294	-1.4705158	-1.4945792
-1.5487092	1.509201	-1.5019565	-1.5632328	-1.5898489
-0.013683031	-0.00062664406	-0.027787022	-0.015508552	-0.022910647
-1.5529903	-1.5580457	-1.5297316	1.5661002	1.5768977
-1.5284446	-1.5156624	-1.4688977	1.5551298	1.5108738
-1.4682313	-1.4709644	-1.455455	1.5023257	1.4502195
-1.5226914	1.5568938	1.5096699	1.57459	1.6071594
-0.04778558	-0.022822632	-0.019375682	-0.04422417	0.027877558
1.638215	1.5914949	1.6251842	1.6645004	1.5984483
0.020922897	-0.027191987	-0.004286058	-0.01423357	0.011359759
1.4298713	1.4170275	1.4244208	-1.3697869	-1.377482
1.214118	1.2083582	1.1713675	-1.1861926	-1.2035193
1.4888741	1.4865392	1.4609051	-1.5488619	-1.5463294
1.2514943	1.2604784	1.2554574	-1.3176084	-1.3141105
1.2017354	1.1439165	1.1167928	-1.1629832	-1.1536789
1.1689496	1.1785582	1.2159013	-1.2506756	-1.1649753
0.0066158916	0.013102369	0.024457755	-0.0037556717	0.0020773285
-0.031981364	-0.020342076	0.047414687	0.038527045	0.044235516
1.0937178	1.0388395	1.0429882	-1.066675	-1.1346246
1.0901734	1.1314152	1.1194444	-1.0865268	-1.1391019
1.2582489	1.2802579	1.3060062	-1.2437568	-1.3117918
1.0194356	1.0115731	0.9955527	-1.0615463	-1.0354471
1.5139428	1.5916617	1.5506932	-1.4981326	-1.551965
-0.009707354	-0.021058071	0.01615632	0.0042215697	0.024968293
0.9956283	0.97095495	1.0267279	-1.02014	-0.9788758
-0.0035950541	0.028712105	-0.03790625	0.025326286	0.01910435
1.3594626	-1.4024599	-1.3486916	1.3807629	-1.356129
0.9912796	1.0108154	0.95916224	-0.9807778	-0.9677119
0.0111194085	-0.011793856	-0.035801798	0.0032583773	-0.013236331
0.98401767	0.9502699	0.94652504	-0.93845254	-0.9435256
0.81667596	0.8783573	0.83485067	-0.87703776	-0.8814042
0.10980738	-0.17624162	-0.19245993	0.12437221	-0.19772005
0.30567947	-0.26874	-0.2840318	0.30756766	-0.33045852
0.16464193	-0.20593305	-0.24062061	0.19645971	-0.19261657
0.22898996	-0.18061395	-0.22906843	0.19327071	-0.15702398
0.13055797	-0.13016705	-0.18074036	0.13458212	-0.22161296
0.13470162	-0.13627523	-0.17131065	0.18338168	-0.16914481
0.14601855	-0.1505314	-0.16380423	0.11467533	-0.15501094
-0.021384835	0.032814477	0.049629476	-0.043267336	0.04070277
0.16096953	-0.15137753	-0.1716732	0.11825974	-0.20089574
0.061592374	-0.0819259	-0.088669345	0.0977805	-0.14198406
0.17308927	-0.1769586	-0.11550352	0.11968849	-0.21173614
0.09166689	-0.10323078	-0.08339231	0.11942294	-0.08315755
0.028506223	-0.008548759	0.020894114	-0.015220918	-0.026825488
0.11457763	-0.08302431	-0.087503456	0.16476832	-0.090581104
0.20597556	-0.21040188	-0.23363176	0.15735978	-0.1639239
0.021686245	0.04318664	-0.025363183	-0.010186233	-0.0006761439
0.057646494	-0.09206358	-0.1327831	0.13361876	-0.13282198
0.111746214	-0.08731038	-0.14478502	0.070507556	-0.13092645
0.08886842	-0.072974965	-0.113928005	0.089028716	-0.10914876
0.09815852	-0.06320449	-0.070796914	0.12109202	-0.12104455
0.12644516	-0.072235435	-0.08652529	0.13192524	-0.092412576
0.06913728	-0.10507943	-0.08484663	0.13718669	-0.08152945
0.014386404	0.03714147	0.025929082	-0.021453727	0.021874417
0.0385299	-0.08157313	-0.01425802	0.063463934	-0.020883078
0.065359786	-0.025423445	0.0063115614	0.06563123	-0.0689505
0.053032804	-0.046807505	-0.07916265	0.04439154	-0.07231255
0.039174784	-0.06563112	-0.030727645	0.013351999	-0.067454666
0.059295896	-0.05284706	-0.07930623	0.014802298	-0.014807881
0.034984417	-0.020851143	-0.058612324	0.018468313	-0.078280754
0.07527702	-0.061117783	-0.07998351	0.054687474	-0.023235181
0.055160888	-0.0799357	-0.048786543	0.08222038	-0.023599247
0.0063646906	-0.0940765	-0.029937388	0.10463016	-0.05845957
0.018371247	-0.046568263	-0.03418922	0.096298	-0.09852917
0.37583077	-0.33848625	-0.38034108	0.35777453	-0.29536617
0.22286677	-0.16724995	-0.20655449	0.18824057	-0.19766375
0.009708323	-0.0073765405	0.028088417	-0.035560466	-0.03175415
0.17958227	-0.21721059	-0.24138594	0.14916813	-0.20397641
0.23465449	-0.22580531	-0.21837482	0.22875795	-0.15425093
0.024756417	-0.04859712	0.008841111	0.0061250585	0.030799918
0.0023248792	-0.032814372	-0.04383681	-0.0063406006	-0.010691844
-0.04613239	-0.031297322	-0.018206405	0.0022688676	-0.03250246
0.035212964	0.04034257	0.0027929686	0.031727068	-0.010372828
0.032150377	0.062073097	-0.02363538	0.029218659	0.023621807
-0.024215706	0.03770634	-0.00089436205	0.0073419614	-0.04450815
-0.01730559	0.043116424	0.045715798	0.013845209	-0.04614986
-0.016302463	0.04658307	-0.018918633	-0.019502416	-0.026556147
-0.022386327	-0.016093202	-0.028219983	0.029631669	0.018307285
0.0064784065	0.036142457	0.020793546	0.012877259	0.0004930869
0.0034758572	-0.0053866934	0.005285588	-0.03202454	0.001432707
-0.036781512	-0.02690692	0.047176134	-0.011093117	-0.03901453
0.011814356	-0.043762755	0.032678116	0.046519484	-0.0052508935
-0.04724144	0.040036205	-0.005533863	0.045332696	-0.02955593
-0.035900425	0.0081882365	-0.040820323	0.04243703	0.031242434
-0.022494968	0.0021963317	-0.008689428	0.036313057	-0.013920913
0.037676465	0.003658034	0.002434373	-0.03973812	-0.0433004
0.022945214	0.019143347	-0.059713837	-0.005029227	0.026622396
0.028361874	0.04695493	0.01575129	0.036935955	0.039001267
-0.031643488	-0.02193023	-0.011740987	0.019854978	0.0410705
-0.024578134	0.02268606	-0.029719606	-0.025781624	-0.003413527
-0.023612736	-0.03869621	0.021653688	0.00010062302	0.027901994
0.03773507	0.0024875284	0.03043253	-0.032846533	0.0109498575
-0.008613539	0.031205542	-0.014303989	-0.0385434	-0.02336034
-0.020908833	-0.04807626	0.022141377	0.004233886	0.033350423
0.017939162	0.0062736273	-0.034312747	-0.028253091	0.045624916
-0.0023971112	0.023596268	0.024325892	-0.0014012611	-0.011108858
0.047385078	-0.008955066	0.002913725	-0.017049326	-0.0065375096
-0.005560123	0.02899587	0.02043095	0.022788553	-0.00053220143
-0.003579507	-0.0348155	0.008472933	-0.034476075	0.020121569
-0.027250275	-0.03902537	0.039963417	0.04062115	-0.021922367
0.024345431	0.024434362	0.0064645037	0.0048970096	0.014860321
0.018637065	-0.011746045	-0.025851715	-0.04846321	-0.032937787
-0.016668987	-0.029195478	0.028773488	0.012669332	0.025437213
0.03601524	0.038525734	-0.0027289614	0.0014831536	0.02374022
-0.0056037125	0.0037666024	-0.026439438	0.013564618	-0.0114584025
-0.030279959	0.011234928	0.048666883	-0.0072716363	-0.020687414
0.025181245	0.047582116	-0.03810513	-0.03944863	-0.0016834736
-0.003688284	0.018901564	-0.015221768	0.0030728006	0.028884144
-0.023380995	-5.3666532e-05	0.021766353	0.024914552	0.04317074
-0.022459788	-0.0067609753	-0.024352226	-0.013935314	0.028150605
0.03244584	-0.016486505	0.028304901	-0.020717531	0.041020874
0.02270516	-0.029331893	0.04937774	0.034563612	-0.0033840518
0.031926934	0.012321472	-0.048979163	0.008913565	-0.00678581
-0.0032070875	0.031546537	-0.006710492	0.004336536	-0.03125228
0.040474664	0.0005974743	0.026777722	-0.016600683	-0.044102594
-0.016391505	0.0372586	-0.04591284	0.009599306	-0.008153416
-0.020035831	-0.015662016	-0.0027386113	-0.010671124	-0.033790447
0.020580877	0.004316129	0.031961653	-0.012457598	0.018772911
0.033392563	-0.02135535	-0.022321071	0.0070459833	-0.003562167
1.633472	1.614599	-1.6609576	1.5682735	-1.6492537
-1.5002178	1.4337405	-1.4870352	-1.4351652	-1.475167
1.609057	1.6145324	-1.6513201	1.6008835	-1.5731547
1.5668504	1.661154	-1.6561112	1.6138246	-1.6302129
1.571229	-1.6197613	1.5754863	1.5422636	1.6002507
1.6430414	1.5872371	-1.5699066	1.6293728	-1.6352739
1.5600612	-1.6111659	1.5733994	1.6076496	1.6170945
-1.579287	-1.5909811	-1.4886105	1.5427634	1.5032846
1.5964582	-1.5386354	1.5489458	1.583649	1.597452
-0.0020232424	0.004448127	-0.014753271	-0.029388225	0.0062978044
-0.40094528	-0.4294461	0.47593814	-0.4164548	-0.45632115
-0.604171	-0.5769484	0.594175	-0.60853803	-0.57845473
-0.0018631816	0.030230355	0.020006683	0.017270576	-0.042366173
-0.39208385	-0.39603266	0.4085413	-0.34268746	-0.3738472
-0.048536815	0.031008985	0.00844302	-0.042705465	0.017235588
0.02287544	0.02244154	0.009151708	0.037032332	-0.013819825
0.005432725	-0.000358928	0.02343924	-0.03972199	0.034716394
0.044269945	0.001555156	-0.021574223	0.018178228	-0.0049472824
-1.4086747	-1.3607968	-1.404978	1.42499	1.4109584
-1.5647125	-1.5008459	-1.4800175	1.5629647	1.5378189
-1.4183553	-1.4350581	-1.4749559	1.4674495	1.4871967
1.5560558	-1.5645713	1.5154626	1.5503358	1.5065446
-1.3552101	-1.3989633	-1.3950603	1.4402649	1.4126532
1.5693641	-1.6097063	1.6130406	1.5742372	1.5615225
-1.4334129	-1.3638269	-1.4379344	1.3752276	1.4009904
0.0007250905	-0.010732353	0.00016593933	0.04402827	0.030984793
-0.03191106	0.02528644	-0.029283961	0.027434614	-0.033214908
-1.0419531	1.0537094	-0.9817642	1.0084233	-1.0625604
0.0016286254	0.010657537	0.029775321	0.034953214	-0.027093804
-0.9116742	0.8600779	0.86844486	-0.8553426	0.83126384
-0.5600523	0.5642224	0.5967702	-0.57220596	0.516443
-0.60251224	0.568414	0.5484968	-0.5310345	0.5404842
-0.41408664	0.4090997	0.42072153	-0.45996475	0.40766776
-0.038080893	0.019740846	-0.035410248	0.04185534	-0.03344222
-0.5166844	0.5042991	0.5383566	-0.5032798	0.539905
-0.8942933	0.9289473	-0.9141473	0.85787135	-0.94223166
-1.5971966	1.5643517	-1.5906032	1.5633395	-1.5386151
-0.7964809	0.77901477	-0.82085365	0.80379736	-0.8305186
-1.5610121	-1.5742422	1.5298336	1.5632896	-1.5430101
-0.85470015	0.8311402	-0.77322215	0.8274239	-0.80865383
-0.027776433	0.005946148	-0.03343443	0.048139963	0.012604002
0.74556804	0.7347425	0.77635926	0.7764847	0.78059965
-0.04281717	-0.0051034447	0.01705194	-0.0012734651	-0.027303642
-0.008674766	0.019224385	0.023457669	-0.008512759	0.028305903
-0.81551	0.8044751	-0.7932494	0.83191353	-0.84958535
0.006469406	0.03825363	0.03639331	-0.035963226	0.014602903
-0.019562423	-0.019890083	0.017974366	-0.036034904	0.03544153
-1.0275992	1.0657983	-1.1144134	1.0258747	-1.0806057
-0.8184883	0.73360646	-0.7783024	0.7481254	-0.79232365
-0.8052332	0.79106206	-0.76391745	0.7238807	-0.73994493
0.016093347	-0.017554175	0.007771969	-0.023531163	-0.008453585
-0.96512294	0.9603533	-0.90349317	0.974402	-0.9086296
-0.7643909	0.8225083	-0.7789366	0.85473645	-0.8077711
-0.74884325	0.7362914	-0.7775817	0.80289185	-0.80550075
0.77896416	0.8368272	0.82860637	0.7616686	0.7979199
0.5856975	0.58538187	0.52451915	0.58980507	0.6106977
0.5690132	0.649738	0.6162617	0.6139092	0.6435609
0.52283955	0.5699203	0.5959553	0.61122334	0.5914663
0.65236855	0.64619654	0.56995124	0.6428064	0.6023509
0.5741797	0.6197723	0.60044944	0.54637593	0.6259224
0.0426283	-0.009348951	0.03210238	-0.034592487	-0.047328293
0.60862255	0.54438305	0.61436135	0.6031223	0.521605
0.55925906	0.5562115	0.5245487	0.5290109	0.5323864
-0.013823009	0.0012240376	0.006697933	0.0077715293	-0.006147347
0.15687753	0.11357115	0.15851313	0.075621575	0.16066359
0.20751916	0.17340273	0.16373545	0.168582	0.1517779
0.14036494	0.13115938	0.16314046	0.16820845	0.19478732
0.12699604	0.07363913	0.1435547	0.11133187	0.13650732
0.15991709	0.17447065	0.11833146	0.12905431	0.07976943
0.09843944	0.09515793	0.059149545	0.082639195	0.049435657
0.13136758	0.06486413	0.08309305	0.109042905	0.065099575
0.08728155	0.092080064	0.06706533	0.050526116	0.086141154
0.12022048	0.052153848	0.10460782	0.044095024	0.12763627
0.10708914	0.12574115	0.11531603	0.15627398	0.12331114
0.07099017	0.0814333	0.032448303	0.081561275	0.111666925
0.09297549	0.11742759	0.11742989	0.05745117	0.06573304
-1.6529192	-1.6207055	1.6217521	1.6488764	-1.6409436
-1.5881432	1.5701284	-1.6087638	-1.6363536	1.6273025
1.6536317	1.6360128	-1.6497452	-1.6753359	-1.6203569
-0.010119595	0.011017464	0.04522911	0.036313627	0.04837117
-0.025983417	0.029338682	-0.010353111	-0.0010838992	0.0152401
1.6098258	1.5587476	1.6532434	1.6274517	1.6259184
1.6179618	1.6314342	-1.610041	-1.6135938	1.632626
-1.5880026	1.61599	1.6271585	1.6578912	1.6336337
0.039590504	0.032859337	0.03553674	-0.036144126	-0.019121671
1.5753179	-1.5313212	1.5429531	-1.5997015	1.5457486
0.6428793	0.65168285	-0.676228	-0.6436521	0.6179981
0.45721343	0.42827713	0.47428563	-0.41544804	-0.4648176
0.033142213	-0.015411951	0.02729294	0.048218932	0.03599887
1.6432302	1.636978	-1.6334049	-1.6515509	1.6036967
1.5944502	1.6160505	1.6492149	-1.6127603	1.587876
-1.6074685	-1.5680822	1.6119065	-1.6551055	-1.5967822
-0.00012757629	-0.048290063	-0.013790943	-0.0025914684	-0.01568564
1.5993553	-1.6155394	1.6257747	-1.6448861	1.6195745
-1.6269531	-1.5887102	1.5887347	1.6298884	1.633539
1.6142212	-1.6124024	1.649706	1.608331	1.6762668
-1.5833246	1.6031039	-1.6143516	1.6197302	-1.6451207
1.5894468	1.6187183	1.6502761	-1.610274	1.5837134
-1.5764104	1.5678469	-1.5912741	-1.5989698	1.5684814
1.617956	1.620743	-1.6752831	1.5890139	1.6259902
-1.6080229	1.5693591	1.632324	1.623754	1.6101471
-0.0044595227	-0.015023015	0.029991392	-0.024070097	0.03624474
1.5889435	1.5802526	1.645015	1.6318561	1.6386425
0.029897321	-0.026087333	0.037684273	-0.00579964	-0.016050316
0.56261337	0.5633119	-0.5335154	-0.60525334	-0.6281363
-1.6482865	-1.6012907	-1.6858563	1.5647739	-1.6259813
-1.618229	-1.6318973	-1.6276767	1.5879287	-1.6282369
-0.03459003	-0.029617012	-0.016305555	-0.0013174787	-0.029761195
-1.6098595	-1.5670999	-1.6342454	-1.6531421	1.6059539
0.02596214	-0.04921924	0.047146056	-0.04966834	0.039378393
1.6200402	1.5692244	1.6416188	1.5990138	1.5990119
1.6607692	-1.6286938	-1.6231319	1.6525452	1.6431216
1.6102188	1.6612039	1.6902329	-1.6311761	1.6622244
1.6283756	1.6287111	1.6100131	1.605993	-1.598012
-1.6371447	-1.6344596	-1.6284615	1.6320502	1.6098661
-1.615502	-1.5860467	1.5911274	1.6133189	1.592473
-1.6306624	-1.6321347	1.5865991	1.5736322	-1.5867743
-0.0013101585	0.012499224	-0.04589658	0.037304018	0.035853516
0.35325262	-0.3821808	-0.36058462	0.35994166	-0.35809514
0.033839386	-0.0148858875	0.0044437405	0.00618732	-0.02541826
-1.6342052	-1.6237675	1.6371921	-1.5850315	-1.5949738
1.6135656	1.6607616	1.6556993	1.6043378	-1.644285
0.0453717	0.0040665865	0.022941198	-0.03750956	0.008156933
0.04553746	0.042162072	0.02489603	0.0125702135	-0.0021362193
-1.6076885	-1.6844383	-1.6466286	-1.6715928	-1.6495932
1.6548404	-1.610403	-1.6445016	-1.6131418	1.6442686
-2.0790381	2.0763435	2.089944	2.1170635	-2.1481285
1.5839947	-1.5943476	-1.5969625	1.5368568	-1.554087
1.610253	-1.619246	1.6311754	-1.6090155	1.6131674
-1.610371	-1.6180564	-1.6063081	-1.6715537	-1.575183
0.00064492226	0.006042052	-0.004231155	-0.04628371	0.033336017
0.55176336	-0.53097206	-0.54979897	0.55158985	-0.54230016
1.5753189	1.6030374	1.6065774	-1.58831	1.6093526
1.5419035	1.6072524	1.5940626	1.530921	-1.6112624
-0.024786746	0.014936004	0.02704693	0.005405009	0.009224616
1.6278863	1.5842416	-1.6523967	-1.6190739	1.5415622
-1.6430929	-1.6366625	-1.633333	-1.6037477	-1.6480166
1.5451647	1.6503608	-1.6052287	1.6429359	-1.6519724
1.6322502	-1.5963078	1.6425577	1.6518022	-1.6711076
1.6876987	-1.6095129	1.660488	1.6477065	1.620128
-1.6198229	-1.5736656	-1.5458567	-1.6028025	-1.6270415
-1.6182202	-1.6447579	-1.6199051	1.6026614	-1.6161013
-0.00783801	0.024092624	0.012042273	-0.01852177	-0.012920433
-1.6672401	-1.6143123	-1.6107739	1.569248	-1.6702751
-1.6250054	-1.6108814	1.6079788	1.602657	-1.6143062
-2.3008142	2.2804031	-2.2588718	2.2973874	2.3324156
-1.6116586	-1.619795	1.6028079	1.5946758	-1.6299114
-1.6172018	1.6296914	1.6471932	1.6419927	-1.6071851
-1.6211433	-1.5296612	1.598294	-1.5838803	-1.6036857
-1.5988979	-1.6325235	1.6531566	1.6379194	-1.6175379
-1.6387103	-1.6567016	-1.5702525	1.6344141	-1.6505289
1.5795604	1.638809	1.6470199	1.6551931	1.6123871
-1.5830534	1.6292168	1.6090657	1.5830139	1.5843945
1.5916891	1.5926485	1.5903424	-1.6432464	1.6590194
-1.6404408	-1.6309534	1.6335946	-1.6573116	-1.608499
1.6734824	-1.6482116	1.6393563	1.6710327	1.5797814
-0.035479084	-0.03787034	0.008660671	-0.012026538	-0.0060708895
0.045178678	0.043649245	-0.0009501688	-0.044345178	0.026836623
-1.5817746	1.6320188	1.6086617	-1.6354907	1.6435002
-0.046465028	0.044939067	-0.008603942	-0.040582575	-0.008996654
-1.6546679	1.5989566	-1.6472287	1.6484542	-1.6317052
1.6280622	-1.6687037	1.6397498	-1.6243054	1.6084378
1.6230692	1.6290739	1.58306	1.6599271	-1.628806
-1.6125691	-1.6366768	1.5814104	1.6117032	-1.614468
-1.5543239	-1.6458769	1.5772828	1.5717397	-1.6072484
0.013900783	-0.038595367	-0.04910467	0.020212185	-0.005635511
1.6139965	-1.6606102	-1.6530333	1.641793	-1.6404812
1.5768851	1.6256223	1.6528814	1.6138767	1.6157707
-1.6644824	-1.6481289	1.5988351	-1.5622549	-1.6738737
-1.624513	1.6127292	-1.5846763	-1.5914378	1.5979817
1.6108522	1.6267263	-1.6267233	-1.5736287	-1.580037
-1.2205657	1.2883736	-1.2160968	-1.2719263	1.3387605
-0.015427042	0.031176161	-0.045284342	-0.026659524	-0.0059535876
-1.6702893	1.6428357	1.5621036	-1.6087346	-1.5970644
-1.6283994	-1.628395	1.611214	1.6327531	1.6160675
-1.5903472	1.6317717	-1.6609951	-1.6570877	-1.6633364
1.6282603	1.6414958	-1.5868233	1.5614547	-1.5833955
1.6064427	1.5979205	1.5563277	1.6337062	1.6206777
0.0176345	0.02054641	-0.00429219	0.012734462	0.002332341
-1.6182352	-1.5911477	-1.5661904	1.6017482	1.5622118
1.5739967	1.6071903	1.6234218	1.5637225	-1.561183
-1.6045007	1.5550358	-1.6192726	1.6061088	-1.6274949
-1.6088364	-1.5963567	1.6231998	1.6456177	-1.6013991
-0.031383768	-0.021026755	-0.0027790777	0.024914924	-0.040300775
1.619053	-1.6435982	1.5953084	1.5989257	-1.5928031
0.0017264485	0.043975677	-0.0007130131	0.02135105	-0.013782073
0.39787647	0.34706157	0.3830953	-0.3837652	-0.40744692
-0.85733694	-0.9288677	-0.90949124	-0.908807	0.9052961
-1.6546375	-1.6229248	1.6393087	1.6251659	-1.6506832
1.6311363	-1.6065269	-1.6229438	-1.6481717	1.618213
-1.6599661	1.6445913	1.6423687	-1.6470958	-1.6373236
-0.034206547	-0.0096242055	-0.007520199	0.0041609295	0.0060816184
0.0015325713	-0.0071427873	0.0023601486	-0.021984404	-0.007002073
-1.6278839	1.6263698	1.6057107	1.6086788	-1.6167487
-1.6462502	-1.601882	-1.5826449	-1.5986313	-1.6445743
1.614444	-1.5703107	1.6115341	1.5992519	1.6630956
-0.9047042	-0.97981226	-0.95369786	-0.92911273	0.9544518
-1.615192	-1.6657414	1.6089174	-1.6714796	1.6604652
-1.6242036	1.6012799	-1.6331918	1.663148	-1.6390359
-1.6330427	1.5942954	-1.6099101	-1.6627517	1.5981636
-1.5447903	1.5900877	1.5924541	1.6118742	1.6059089
1.5785137	1.517302	-1.5528523	1.5551157	-1.523684
-0.84708905	-0.8248333	-0.7996954	-0.8214278	0.8829301
0.025782514	-0.023965253	-0.043375958	-0.017818082	0.043214332
-1.6373541	1.6621557	1.6148068	1.6136198	1.6316845
-1.5401505	-1.6301068	-1.624426	-1.5880493	1.5899658
-1.609375	1.605023	1.5872111	-1.6032501	1.6088846
1.5973943	1.5152636	1.5435759	1.5628709	-1.5473155
-1.6068367	1.6090542	1.6431847	1.642892	-1.6196191
0.025356058	-0.011113513	0.013975713	0.008550227	0.049073968
-1.6014497	1.6594193	-1.6102105	1.6223178	1.5720735
0.021033231	-0.008719765	-0.0144019835	0.015113387	-0.010408424
1.6231326	1.6541407	-1.6524903	1.577942	1.6179289
1.6025578	-1.6485583	-1.6247725	-1.5960948	1.6551262
1.5514526	-1.624163	-1.5936586	-1.580345	1.5975817
-0.00013842434	0.037465844	0.026327882	0.045329306	-0.012210347
-0.049212184	0.0044847615	-0.026889538	-0.0023266189	-0.013174187
-1.5805573	1.6470461	-1.6560076	1.6668843	-1.6639918
0.027447786	0.00808065	-0.009443115	-0.005066287	0.025030863
-1.6299003	1.5919567	-1.6508435	1.5900568	1.5804183
-0.6557107	-0.6815141	-0.6324085	-0.67142737	0.63160706
-0.036943115	-0.036619604	0.03280941	-0.024497224	0.023750138
-0.015059136	0.0009186864	-0.026034975	0.035002206	0.00063262135
-1.6515863	1.6438142	-1.6330954	-1.628539	1.6579137
-0.7675609	-0.73957145	-0.76733553	-0.71543884	0.70567477
1.5935873	-1.568096	-1.6605568	1.6213965	-1.5733297
-1.5647186	1.6002657	-1.6134	1.5792718	1.5191797
1.5238451	1.5956591	-1.5974436	-1.5353932	1.588241
-0.5542682	-0.57951236	-0.47516152	-0.5734646	0.54941386
-0.58257985	-0.57334995	-0.6117977	-0.6277205	0.613327
-0.30746904	-0.30231503	-0.28590995	-0.24307895	0.31676534
-0.40858	-0.46002084	-0.45207268	-0.45179698	0.43667153
-0.29601458	-0.28188524	-0.311918	-0.3133278	0.25623554
-1.1088272	-1.1283109	1.1115255	-1.0948439	1.1134126
-0.6862867	0.61733496	-0.68352854	-0.6920406	-0.70252234
-1.5899003	-1.5863645	1.6427342	1.6077032	-1.6214004
-0.35332385	-0.36200085	-0.3585746	-0.35400146	0.35685602
-0.6971755	-0.6914721	-0.6327672	-0.70838886	0.7114251
-0.83472294	-0.85834444	0.8070867	-0.8003924	0.8288969
-0.7497863	0.80322754	-0.76152146	-0.82234585	-0.76939136
-0.71493924	0.7338088	-0.66075015	-0.6947024	-0.67110354
-0.5660895	0.6338219	-0.61682624	-0.60741156	-0.5752375
-1.0949612	1.1265491	-1.1003083	-1.0658784	-1.092316
-1.0973622	1.147356	1.1367513	-1.181042	1.1836753
0.01986133	0.02997375	-0.012045838	0.009721506	0.009090148
0.0013607964	-0.0024958253	-0.026006604	0.03589547	-0.0024505742
-0.41805133	-0.37081635	-0.43339407	-0.40578908	0.4064675
-0.33791846	-0.33692187	-0.3591795	-0.36811948	0.37639531
-0.32179248	-0.31723118	-0.35769552	-0.34397927	0.3791614
-0.26540273	-0.31037405	-0.31457728	-0.3193296	0.25213474
-0.4804293	-0.39008227	-0.4514334	-0.46257785	0.42315277
-0.62523067	0.59574217	-0.58326346	-0.5668727	-0.589243
-0.4562432	-0.43795627	-0.45096195	-0.45710662	0.4790963
-0.036470532	0.0012971647	0.04013015	0.0063085444	-0.029023755
-0.46937147	-0.48290002	-0.42324537	-0.42575985	0.4765764
-0.27999404	-0.3071563	-0.31146067	-0.26208654	0.29997706
-0.2767076	-0.34224716	-0.27129674	-0.33379334	0.27943075
-0.33996233	-0.28688183	-0.27950218	-0.3170289	0.27833813
-0.35114396	-0.25082898	-0.30563924	-0.28779632	0.32029533
-0.6173283	-0.5906243	-0.5463086	-0.57780993	0.61338544
0.019294593	-0.009604167	-0.020107675	0.03137516	-0.04042382
0.008455895	0.028733227	-0.008003544	-0.0147999525	0.0076646693
-0.50391054	-0.4685862	-0.46589315	-0.42319235	0.43126202
-0.6179303	-0.5959107	-0.5671618	-0.5542949	0.608469
-0.54979134	-0.465321	-0.5012748	-0.5219925	0.46566167
-0.48473814	-0.43881172	-0.40911493	-0.4753914	0.4759271
-0.6272021	-0.65088445	-0.5465399	-0.5782398	0.55550987
-0.59608835	-0.5473076	-0.52159774	-0.5066593	0.5755326
-0.5675412	-0.5859332	-0.6607784	-0.6262417	0.5939297
-0.00327871	-0.037028324	-0.047040846	-0.028249932	-0.046731066
-1.5964869	1.5658816	1.5867027	-1.5148852	1.6138773
0.010477435	0.0022121668	0.032029282	0.0108730085	0.03127439
-1.4262019	1.416815	-1.3520305	1.344934	1.3850191
-0.03896438	0.010282099	0.036425557	0.010882389	-0.026444806
-0.26305693	-0.20653261	-0.2649142	-0.2749288	0.19478081
-0.450641	-0.42466393	-0.4459472	-0.42913544	0.47029266
-0.26924917	-0.20099956	-0.24431878	-0.27314398	0.22327395
-0.018541	-0.01532669	0.023913074	-0.0118865	0.008749507
-0.28022715	-0.24302496	-0.27742246	-0.22941367	0.25851104
-0.5250185	-0.48045525	-0.49142605	-0.52107215	0.51425356
-0.21746188	-0.17163995	-0.14731297	-0.24049656	0.17534256
-0.47311634	-0.5214617	-0.5261951	-0.45063055	0.49405774
-0.32739753	-0.37096396	-0.32912165	-0.42145345	0.32810083
-0.5085218	-0.48293155	-0.50652665	-0.51927763	0.5063738
-0.3950153	-0.45339528	-0.38234082	-0.39108	0.41138086
-0.031454876	-0.028025782	0.04654528	-0.00086369365	-0.049214136
-0.4841411	-0.50387955	-0.502379	-0.5236777	0.5188816
-0.39751086	-0.3920764	-0.37364697	-0.38980564	0.41891497
-0.62418544	-0.6275657	-0.6131156	-0.59369725	0.5528119
-0.006879069	0.022506032	0.0022680052	-0.049493086	-0.022093369
-0.54296404	-0.44810843	-0.45568398	-0.46603844	0.5266757
-0.4864604	-0.4896501	-0.4771682	-0.48343346	0.51437044
-0.3220492	-0.2729148	-0.2956326	-0.28141308	0.28141427
1.6358279	1.639974	1.6695148	-1.668897	1.6371984
-0.29156774	-0.29993653	-0.2536355	-0.21758959	0.22576721
-0.24044444	-0.1788327	-0.18269901	-0.25582993	0.17084813
-0.22997214	-0.16804172	-0.23396713	-0.21398848	0.18377163
0.024478946	-0.03342636	-0.04631814	0.040351715	0.046912465
-0.28238085	-0.28292733	-0.32032478	-0.2752444	0.2981547
-0.18117101	-0.13975722	-0.14362912	-0.1774456	0.13722077
-0.19649099	-0.18007146	-0.16620107	-0.22519407	0.19790994
-0.10517565	-0.02843488	-0.0024070945	-0.052257378	0.023196004
-0.18452868	-0.14735052	-0.102959886	-0.1605997	0.19200656
-0.1166454	-0.15235047	-0.058268204	-0.13202885	0.065786265
-0.17344257	-0.13957283	-0.11104921	-0.11640233	0.17173192
-0.21742173	-0.21638444	-0.23431091	-0.29855376	0.23484083
-0.2649546	-0.2492525	-0.26300564	-0.22383194	0.28272915
0.012726549	-0.029873539	0.017560672	0.037821222	-0.041468967
0.018535469	0.0036267862	-0.02793746	-0.03568835	0.027960036
-0.101230145	-0.16448025	-0.06224177	-0.07296749	0.12823291
-0.21237068	-0.1963702	-0.20737137	-0.19007368	0.2269509
-0.113046035	-0.03324606	2.8918836e-05	-0.05121296	0.085881196
-0.24282044	-0.19596468	-0.1663302	-0.21173765	0.21108814
-0.23042478	-0.22608826	-0.18066397	-0.16648903	0.15557927
-0.06205917	-0.008364356	-0.035884734	-0.054096572	0.06441855
-0.13533697	-0.12846597	-0.061125576	-0.12787037	0.073033355
-0.14546588	-0.12677696	-0.07290945	-0.12168912	0.06805436
-0.17183833	-0.16703494	-0.23857586	-0.24977356	0.21419136
-0.14583424	-0.17806102	-0.1511643	-0.12651324	0.1828983
-0.011259772	0.04993664	0.0061120503	0.017173816	-0.0030923374
-0.14713737	-0.097073324	-0.104096286	-0.063294895	0.1301113
-0.11563289	-0.092912786	-0.116808444	-0.049868662	0.08596527
-0.006214667	0.040947605	-0.03743129	-0.026762689	0.027238276
-0.0942906	-0.10476652	-0.13570675	-0.09547991	0.10523095
-0.15020753	-0.0746405	-0.09188547	-0.07962138	0.08091939
-0.13898835	-0.09653691	-0.078435265	-0.11421718	0.10807626
-0.008307349	-0.08144072	-0.048196338	-0.06750557	0.009324332
0.01384281	-0.016420651	-0.023958731	0.017906014	0.048774827
-0.06258136	-0.052567262	0.0061402214	-0.059678353	0.03807637
0.0061903372	0.041166794	-0.024124695	-0.009044193	-0.023541654
-0.42636284	-0.4042684	-0.41939777	-0.37462005	0.41540772
-0.3018311	-0.33533293	-0.23764513	-0.27185133	0.31079236
-0.3037374	-0.27751514	-0.2780702	-0.31706375	0.28181666
-0.21508937	-0.18011668	-0.2234615	-0.17925198	0.16817349
-0.31978148	-0.37590984	-0.3332981	-0.35347867	0.33724487
-0.02390783	-0.030556036	-0.049911726	-0.023496985	-0.028194904
-0.4384004	-0.35878143	-0.35902637	-0.40967768	0.39342096
-0.3259719	-0.25310645	-0.31722784	-0.25583878	0.30315042
-0.04182911	0.03892001	0.0064352974	-0.0057426803	0.032582317
-0.31478193	-0.33797812	-0.25227717	-0.27089357	0.28433388
-0.3082741	-0.24351035	-0.281598	-0.30548176	0.31949052
0.018266145	0.028225292	-0.021915734	-0.03515271	-0.029561996
-0.28147003	-0.25750118	-0.2461436	-0.24609832	0.17891414
-0.11174612	-0.12004433	-0.079682715	-0.12377741	0.094444744
-0.30371565	-0.26878333	-0.3058047	-0.26330945	0.31335756
-0.30292207	-0.35344842	-0.24878415	-0.34798035	0.28687656
-0.009454429	2.783537e-05	-0.006359767	-0.0031760707	0.020999085
-0.34055164	-0.35210547	-0.36534363	-0.3221058	0.3314024
-0.32636607	-0.3609183	-0.35171336	-0.32842535	0.34990057
-0.14961599	-0.13094267	-0.09717101	-0.16380335	0.16678835
-0.1658244	-0.16276087	-0.10334863	-0.15426974	0.19515985
-0.26984164	-0.29440415	-0.22272971	-0.20739463	0.2822281
-0.17926463	-0.22605239	-0.15826333	-0.23577759	0.16126579
-0.15319793	-0.1162288	-0.1756924	-0.17968595	0.14952089
-0.023811925	0.0028625615	0.014167909	0.044059876	-0.022558762
-0.32492745	-0.25233242	-0.30009812	-0.33030352	0.25645217
-0.13874356	-0.06287382	-0.08813687	-0.12520017	0.11828074
-0.16640422	-0.23322675	-0.14349595	-0.19657566	0.21997412
-0.043971907	-0.04368148	0.031091277	0.026510727	0.046473872
-0.23012453	-0.22865333	-0.16534066	-0.20509277	0.19490941
0.02913696	0.020704772	0.003718961	-0.015209805	0.031651232
-0.19395581	-0.19193059	-0.1778821	-0.17897959	0.22588831
-0.0023844019	-0.035626017	0.036042873	-0.027879262	0.013671745
-0.01700766	-0.031454563	0.0055159107	-0.03081174	-0.010044016
-0.04453647	0.026646923	0.030989919	-0.03622339	0.022915255
1.6130502	1.6429158	-1.6273854	1.6528851	1.6461625
1.5472435	1.4797337	-1.5158924	1.517377	-1.5587634
-0.102061786	-0.12853967	-0.061932255	-0.118921205	0.12658049
-0.06303494	-0.04447425	-0.029792903	-0.049738567	0.095057145
-0.058689024	-0.016286463	-0.113017194	-0.043663442	0.05986549
-0.10901462	-0.06602314	-0.06251577	-0.021173302	0.027272938
-0.079673305	-0.013741754	-0.019011546	-0.08516089	0.058129836
-0.043712437	0.03844471	0.020520035	0.03305907	0.036077682
-0.045028627	0.021455398	-0.048710354	0.028094469	-0.012058573
-0.0024149418	0.038880084	-0.041599166	-0.031430483	-0.0015953779
-0.02460554	-0.031321917	0.043017346	0.019786302	-0.030878143
-0.19450277	-0.14050566	-0.13766274	-0.18747708	0.12539732
-0.018791454	-0.025217516	0.0005653506	0.00010587574	-0.010664684
-0.03587885	-0.033562995	-0.047476854	0.029188488	-0.020059396
-0.102374956	-0.053791527	-0.07442107	-0.124469	0.1048107
-0.04200184	-0.097257316	-0.00843805	-0.07868597	0.04146002
-0.120041	-0.09425203	-0.090977386	-0.092530094	0.06698973
-0.14898838	-0.08200305	-0.11876557	-0.09911375	0.085830405
-0.11525677	-0.10855561	-0.11224905	-0.07966057	0.045442704
-0.027526988	0.014043165	0.012162672	-0.036208276	-0.0035497886
-1.5990651	-1.5598261	1.6315542	-1.6103966	-1.639046
-1.5218513	-1.6418278	-1.5977681	1.6317719	1.6050342
-1.6298441	-1.6642061	-1.5975043	1.6205386	1.6883804
1.6042236	-1.6182401	-1.6674337	1.5952907	-1.6719369
1.5207987	1.4475247	-1.4731978	-1.4619184	1.4580908
-1.5872508	1.5897623	1.6529481	1.5849698	-1.6399528
1.5904299	1.6189944	-1.6550609	1.6254481	1.6108177
1.6083922	-1.6255481	1.6188848	1.6081586	-1.6500844
-0.0181777	0.020612907	0.0035573132	0.048691574	0.026695896
1.6497988	1.6542195	1.6782293	1.5844715	1.6582363
-0.029825866	-0.028261436	-0.016043149	0.037097838	0.010069478
0.049499143	-0.0010524988	-0.034086287	0.027260754	0.035029177
-1.5942014	1.6363671	-1.62063	-1.6542774	1.5860668
-0.03576945	0.015681218	0.029801968	-0.010595869	0.027363371
1.6073656	1.6528891	-1.6323817	-1.6306132	-1.5636334
0.004809547	-0.041468717	0.037108492	0.005374085	-0.0026753172
-0.4572102	-0.45191967	-0.42143518	0.43534175	-0.49277323
-1.5960478	-1.6157224	-1.6137459	1.6284295	1.6124616
-0.02569685	0.039850306	0.028145183	-0.011766948	-0.0111387
-1.5779796	-1.6303611	1.5760534	-1.6371092	-1.6525338
-0.028382171	-0.047464132	0.047582913	-0.03052559	-0.02683648
-0.036888517	0.042691436	-0.03457731	0.039333392	-0.013357677
-1.6201291	-1.6181685	1.6353145	-1.6361601	1.6353434
-1.5968196	-1.6329896	-1.5765104	-1.6013105	1.6111865
-0.009245216	-0.040277664	0.004076503	-0.027675448	0.014441176
-1.6426164	-1.6524918	1.610901	1.6107384	-1.6457188
1.5751204	-1.6348964	-1.6682582	-1.6428913	1.5985873
-0.0007037297	0.04367603	0.022236574	-0.0068827495	0.028977547
1.6367613	-1.6117871	-1.6144089	1.6488383	-1.5956945
1.4677299	-1.4666377	1.44301	-1.452837	-1.4130933
1.5451733	-1.4671533	1.4643039	-1.5446373	-1.5018638
1.4933603	-1.5062298	1.5069437	-1.450967	-1.4562292
1.4753387	-1.46442	1.4925327	-1.5040517	-1.4282806
1.4174092	-1.4464066	1.4095964	-1.46856	-1.4987938
1.4838424	-1.4053043	1.4505965	-1.4631268	-1.4443125
1.4140141	-1.4032199	1.3565146	-1.4101162	-1.3560472
1.3950049	-1.4587133	1.4168983	-1.4849863	-1.4820327
1.467411	-1.4934279	1.495404	-1.4548874	-1.4524682
1.425949	-1.471527	1.4770892	-1.5032251	-1.4584306
1.3392985	-1.2775152	1.336046	-1.2934568	-1.3340458
0.043894265	0.018586684	0.036731724	0.012038112	-0.04186045
1.4068613	-1.389069	1.4577748	-1.4229058	-1.4272362
1.3068776	-1.3581377	1.3630819	-1.267521	-1.288062
1.1618627	-1.2003797	1.2315882	-1.2338921	-1.2028145
1.2280502	-1.1794393	1.2419066	-1.1833193	-1.196892
0.02115241	-0.020956254	-0.03571079	-0.013443302	-0.029369533
1.1678776	-1.1919005	1.1001915	-1.0996338	-1.1192101
1.6642507	-1.6683384	-1.6453725	-1.5705433	-1.6455666
-0.013073586	-0.0483673	0.041474823	0.009739198	0.034270335
-1.6452373	-1.6668817	1.5867239	-1.635832	1.6379868
-1.632867	1.6310079	1.6139662	-1.5897524	1.6846836
1.555095	1.5575874	-1.5951167	-1.6136327	-1.5932857
-0.8122907	0.82335114	-0.8331371	0.8372681	-0.8435897
-0.0066789016	-0.03858038	0.0013379827	-0.029856134	-0.0382907
1.5543401	1.6115406	1.6423463	1.6171459	1.6183387
0.01643077	0.032359388	0.04698788	-0.034799613	0.041315388
-1.6439252	-1.6226647	1.610082	-1.6783595	1.5661225
1.6411806	1.6262081	-1.6623924	1.6135443	1.6397263
1.5837669	1.6415268	-1.6199008	1.6262574	-1.6431262
0.041143846	0.038727712	0.04559889	0.01777668	-0.0028548837
0.026833009	-0.04688275	0.027053427	-0.000280343	-0.0205994
0.062865674	-0.026454305	0.011708181	-0.00664717	0.002867418
-0.03797065	-0.04637407	-0.049293794	0.034851994	0.0074358806
0.0034496924	-0.04644962	0.0069254264	-0.021045724	-0.0036992684
0.043037843	0.045550633	-0.019081378	0.018698204	0.00089533255
1.6219511	1.602768	1.6428461	-1.5992783	-1.5890409
1.5675204	1.5886737	1.562154	-1.6193042	-1.5809965
1.5613412	-1.622064	1.5582887	1.6158686	1.6016121
1.6171556	1.6087778	1.6099722	-1.6267298	-1.6154704
0.6795517	0.7157634	-0.7028779	0.7179895	-0.73999393
-1.6339766	-1.5935692	1.5797765	-1.534208	1.6451094
1.2129662	-1.2256892	-1.1422238	-1.1862832	-1.1733117
1.0578372	-1.0631123	-1.0532234	-1.0923221	-1.0229878
-0.013698578	-0.0122358315	-0.02620752	0.034733426	0.031587508
1.039021	-1.0516133	-1.1170026	-1.0745424	-1.0901895
0.010995947	0.02068657	-0.0021590106	0.016131531	-0.04023696
0.98576796	-0.92514205	-0.9287293	-0.93280953	-0.9327477
1.0314589	-1.053715	-1.0822185	-1.0004106	-1.0318915
0.96831703	-0.92061555	-0.9839333	-0.96464056	-0.9792992
1.1229073	-1.0817276	-1.1346046	-1.1257981	-1.0895072
1.1500739	-1.146654	-1.1511098	-1.1581267	-1.1407826
1.6091902	1.5970335	-1.5926805	1.5714208	-1.6117716
0.0013430603	-0.004737925	-0.003778983	0.0035134777	-0.033831943
0.86331797	-0.89728737	-0.8680661	-0.9156077	-0.91642576
0.9099516	-0.86884785	-0.8745596	-0.90413916	-0.8759614
0.04293212	-0.041541647	0.03729253	0.040278587	0.0406862
1.0521021	-1.106366	-1.0749722	-1.0108267	-1.00723
-0.012386572	-0.009160541	-0.02315159	-0.03149873	-0.0021333098
1.0767546	-1.0443747	-1.0266567	-1.091841	-1.0242769
0.022213165	0.034551833	-0.036679365	-0.0115550645	-0.00037156418
0.8333491	-0.8137858	-0.7874259	-0.8316061	-0.8663052
0.91627693	-0.9512508	-0.9782575	-0.9137962	-0.9306604
1.6650677	1.5759337	-1.587382	1.567909	-1.6286066
0.9538168	-0.9992571	-0.97613245	-0.9329726	-0.954867
0.85442	-0.8696283	-0.92467743	-0.85693693	-0.9213716
1.0074446	-0.94142604	-0.9409722	-0.98393095	-0.9793053
0.86001366	-0.90608025	-0.9024758	-0.9005027	-0.83773875
0.886296	-0.84839	-0.8583727	-0.92837113	-0.9191004
1.5631394	1.6251018	-1.6395258	1.6474293	-1.6282477
-1.6176503	1.5466788	-1.575708	1.611485	1.6475774
-1.5812871	1.5520939	-1.5839566	1.6346068	1.6213429
-1.5900271	-1.5663937	1.6160017	-1.5974565	-1.6175739
-1.4211828	1.460228	-1.4163154	1.4051793	1.4583288
-1.5567018	1.6093924	-1.5406319	1.544021	1.5354868
-1.4606079	1.4445034	-1.3968517	1.4320445	1.4559712
-1.4419491	1.4535434	-1.5463204	1.4781339	1.5082531
-1.3846688	1.3306428	-1.3764986	1.41845	1.337553
-1.4499527	1.4739683	-1.5025617	1.491943	1.4353019
-1.5636934	1.5904659	-1.6001264	1.6243724	1.6104305
-1.5333247	1.5400844	-1.5745556	1.5366448	1.4995064
0.01746967	-0.012906052	-0.009863198	-0.035953544	0.034202863
-1.3013765	1.2981684	-1.3583013	1.3556938	1.3425014
0.024062421	0.014348242	-0.03478322	-0.017217018	0.035989728
-1.2739955	1.2779778	-1.2862629	1.293811	1.3266325
1.5750923	1.5575854	-1.6294403	1.6414837	-1.5404676
0.034558427	-0.0058625937	0.042082097	-0.012462832	0.004767228
-1.210982	1.2385488	-1.1991477	1.235249	1.170562
1.6607599	1.6094198	-1.6062542	1.5838681	-1.6170305
-0.04690955	0.030661453	0.03178587	-0.010211039	0.04106546
0.0087533705	0.02271441	0.012321055	0.04962757	-0.004347373
1.5879301	-1.585275	-1.5594575	1.6210012	-1.632118
-0.7672289	0.7728701	0.7096578	0.7137298	-0.77650476
-0.91714936	0.88344187	0.89076126	0.8599083	-0.8724347
-0.25070405	0.26866716	0.24695517	0.3104008	-0.27515876
-0.45860305	0.43675733	0.49533308	0.4568596	-0.5019672
-0.64949054	0.6516307	0.6755499	0.64943975	-0.6228887
-0.047827113	0.014793742	-0.016944159	-0.04897405	-0.01808393
-1.6377918	-1.6537253	1.6141473	1.6214671	-1.6640972
0.011803258	-0.030343676	-0.036657393	-0.036318053	0.00035051256
0.006098763	-0.0081601795	-0.027031833	0.033782218	-0.0025100186
-1.6278389	1.6242514	1.5588474	-1.5746495	-1.6191086
0.009948781	-0.016761446	-0.026988352	-0.010623904	-0.0134639405
1.650842	1.6227759	-1.6085311	1.586815	1.5756146
1.6114701	1.5904387	-1.6073917	1.5871125	1.6146073
0.0013277498	-0.0063951784	0.050986134	-0.033946924	-0.030942887
-0.39125237	0.3918021	-0.3155443	-0.38302857	0.3865279
1.6216968	1.5895209	1.6260259	1.5624834	1.5808855
-0.5759216	0.57307726	-0.5479817	-0.61694175	0.5755192
-0.7740616	0.74003357	-0.7702505	-0.8225031	0.8302116
-0.17326632	0.19752698	-0.22335829	-0.2039152	0.18425673
-0.16202502	0.15980513	-0.18130068	-0.09499972	0.18513067
-0.19063957	0.18995762	-0.17582066	-0.15407988	0.14770666
-0.009918191	-0.016136158	-0.0028756484	0.045564268	-0.031658947
-0.2903562	0.35612953	-0.35550794	-0.34243953	0.32826856
-0.22654058	0.22504893	-0.20661046	-0.16235077	0.23742694
-0.13639179	0.1339139	-0.18971492	-0.18470614	0.20916486
-0.14685117	0.1899962	-0.23393184	-0.13517193	0.15706532
-0.10431387	0.07384574	-0.10382749	-0.09114837	0.07939007
-1.5237043	1.5246962	1.4732718	1.4918184	1.4878112
1.6332331	1.5726368	-1.5864878	1.613297	-1.6074381
-0.043606997	-0.030839229	-0.020155955	-0.0040110946	-0.03747157
1.6025915	1.6408778	-1.5949543	-1.5899549	1.6093272
1.6160927	1.6039776	1.5707276	1.6474293	1.605995
-1.6792539	1.5946746	1.6057255	1.6649003	1.6409521
-0.6392123	0.66245663	0.6661086	-0.5845274	-0.62561053
-0.5893465	0.6930703	-0.6166022	-0.5905874	0.64297277
-1.5867848	1.5694788	-1.6607995	-1.6196185	1.6119972
0.46257773	-0.5174382	-0.43129367	0.4416315	-0.48376232
1.61526	-1.6636149	-1.6744641	-1.5860096	-1.6135448
0.023425909	0.01978824	0.016932113	-0.0072864965	0.038997237
0.01702926	-0.015020706	-0.040723205	0.0142799355	0.045331065
0.38821542	-0.42811835	-0.37020934	0.4466032	-0.43774557
0.03786931	0.047611345	0.013848018	0.03867208	0.011158835
-1.626215	-1.6157184	1.5795108	1.5860388	-1.574753
0.40694702	-0.37535954	-0.31332698	0.40719447	-0.322901
0.36817595	-0.42772433	-0.41741693	0.4031233	-0.39304566
0.29253373	-0.33061737	-0.3146585	0.3611577	-0.27292335
0.3176939	-0.28735387	-0.32845962	0.2999633	-0.33460397
0.21811265	-0.26593354	-0.21042141	0.2833513	-0.26134226
0.2346685	-0.23962617	-0.25669456	0.27907604	-0.22838025
0.26549447	-0.26992285	-0.2416928	0.30206755	-0.23568983
0.2893447	-0.2371825	-0.24288067	0.23124737	-0.2374435
-1.4261554	-1.4921136	-1.4325925	1.521286	1.443953
0.24069884	-0.25942314	-0.24543251	0.29516238	-0.26649
0.22602381	-0.2857438	-0.2181247	0.2300304	-0.2789317
0.024162296	0.027783815	0.047362592	0.0173941	0.00010539219
0.26407897	-0.23691687	-0.199104	0.26219353	-0.26561648
0.38966396	-0.36377382	-0.34410682	0.33932027	-0.38730186
0.03405795	0.034540903	-0.049560215	0.005601179	-0.048654355
0.03943943	0.021672118	0.02479333	0.049774017	0.03759816
0.0196602	-0.047335375	0.0019286759	0.002353359	0.011647295
0.1874796	-0.24269189	-0.19174027	0.19407426	-0.16976924
0.21382126	-0.19104439	-0.19381015	0.24238448	-0.21649957
0.038315956	0.036519025	-0.0086394325	0.044112112	-0.04596938
0.17525542	-0.20019557	-0.18270153	0.23548089	-0.19064173
0.3233531	-0.31231034	-0.2939903	0.26670265	-0.3021894
0.31801838	-0.32995996	-0.24583837	0.32527283	-0.27759302
0.2660747	-0.25462347	-0.27940387	0.20556466	-0.23170143
0.26484033	-0.2495545	-0.22387527	0.23580496	-0.25952846
0.20437421	-0.3000304	-0.23253445	0.23270714	-0.26225078
0.28061056	-0.2284609	-0.23983136	0.3113974	-0.22205028
0.26749554	-0.23603912	-0.22798409	0.21978989	-0.28723118
0.2599355	-0.19537725	-0.24018791	0.28110364	-0.26534304
-0.030389225	0.007149972	0.026389826	0.0030546077	0.021123234
0.14386214	-0.1649444	-0.14781748	0.14791995	-0.19599986
-0.018052172	0.031220522	-0.04787854	-0.014298916	0.03819518
0.25065455	-0.16089511	-0.21362804	0.17893372	-0.18218909
0.21554618	-0.17542982	-0.24611737	0.18534236	-0.15999994
0.14692135	-0.21381812	-0.13366374	0.16708124	-0.14028566
0.15373547	-0.22142348	-0.24274224	0.18632962	-0.18104234
0.11830902	-0.13473877	-0.1787027	0.17432448	-0.17176697
0.15863672	-0.18951967	-0.15753302	0.17651609	-0.11919189
0.15941179	-0.13668472	-0.16071674	0.1382126	-0.1922682
0.19259788	-0.11523979	-0.16761795	0.15274268	-0.1692958
0.015969347	-0.016487718	-0.022716964	-0.03201089	0.033107582
0.18492931	-0.14776511	-0.15954	0.17472182	-0.13607636
0.07218464	-0.11091418	-0.057719015	0.12607238	-0.112397216
0.17474422	-0.09187619	-0.15233114	0.15269619	-0.15643387
0.1391381	-0.115269445	-0.19494617	0.1759497	-0.17978883
0.16443779	-0.13436012	-0.16519703	0.13301085	-0.12453804
0.06772905	-0.117360145	-0.10046873	0.14267834	-0.11925904
0.00182762	0.006712366	-0.034817457	0.02309275	-0.027214432
0.035199296	0.035509083	0.018607471	0.019332137	-0.03125246
0.121680275	-0.13295682	-0.0709546	0.08720768	-0.059743926
-0.040482022	0.03327998	-0.049874533	0.042741787	-0.013765179
0.12251011	-0.058501165	-0.10555846	0.10805246	-0.07942536
0.21330452	-0.19332998	-0.18865396	0.16494647	-0.22751175
0.11180644	-0.18406178	-0.16527788	0.1488441	-0.19431178
-0.029857539	0.021631697	0.008946982	0.04950606	-0.042294066
0.39262176	-0.39590737	-0.4380633	0.36502856	-0.4293116
0.02815989	0.03735162	-0.027554953	-0.047827195	0.041324977
0.21722224	-0.12771985	-0.14451604	0.18686835	-0.12702206
0.11427357	-0.12003319	-0.13313013	0.13529548	-0.04563182
0.03189049	-0.041639358	-0.084132314	0.057764594	-0.07790448
0.029249545	-0.102282576	-0.05615274	0.01280227	-0.017772749
-0.032261446	0.044836316	-0.04891757	-0.04033767	0.032720674
0.06736171	-0.05869133	-0.08460049	0.029296694	-0.05757649
0.3509434	-0.3398453	-0.30394033	0.353953	-0.40016654
0.37054273	-0.3792721	-0.3578863	0.36494544	-0.3468899
0.36237577	-0.3781856	-0.3088856	0.34391916	-0.34878847
0.273255	-0.35611498	-0.3365074	0.28301406	-0.3150454
0.2918747	-0.32152387	-0.36536804	0.2854062	-0.28029007
0.29760817	-0.30465883	-0.3410129	0.28203088	-0.3376356
0.09326779	-0.047208082	-0.0571015	0.06965141	-0.021443697
0.03907864	0.010413874	-0.013556648	-0.012088548	0.022009086
0.08948732	-0.012569865	-0.06777032	0.05337524	-0.06276593
0.40847856	-0.4017765	-0.4030734	0.36226526	-0.42330003
-0.018742394	-0.032669723	0.0015770681	0.04759932	-0.042311084
-0.029663468	-0.020747472	0.03632747	-0.024137378	0.037791315
0.17304286	-0.21255045	-0.19316885	0.19187076	-0.2082575
0.12227951	-0.14596497	-0.19878355	0.17745538	-0.15049335
0.07464705	-0.09839162	-0.08953059	0.12948981	-0.08732721
0.2065665	-0.21443911	-0.1542642	0.24254479	-0.16900147
0.14169978	-0.13135284	-0.08324643	0.06676699	-0.12042503
0.015418055	-0.03056293	-0.049126133	0.07633178	-0.106084645
0.07515175	-0.086006165	-0.12977657	0.11128413	-0.06916416
0.18189728	-0.1542357	-0.19339712	0.13738197	-0.13052
0.19866814	-0.19477476	-0.10651616	0.19726452	-0.10307069
-0.023070598	-0.034832537	-0.017888475	-0.020681476	-0.009409107
0.15487312	-0.14839709	-0.14588329	0.19623122	-0.15743652
0.13133502	-0.11982809	-0.18917917	0.14775172	-0.21001038
0.16355175	-0.15649521	-0.14415143	0.15651113	-0.18281336
0.16162437	-0.15214229	-0.15196805	0.17524993	-0.15309155
0.13647954	-0.17554396	-0.18999787	0.16877662	-0.13850619
0.20035398	-0.14323784	-0.1585924	0.1254937	-0.16989714
0.12337595	-0.13325608	-0.13779873	0.21008699	-0.124901325
0.11408128	-0.060775872	-0.118142724	0.059937358	-0.11676251
-0.0144606605	0.049681257	-0.0025699511	-0.012918115	-0.046793368
0.006052673	0.011681259	-0.009588502	0.011245489	0.026256192
-0.004127638	0.024832698	0.0040328274	0.003901076	0.008983823
0.1306599	-0.13901533	-0.21719638	0.14841138	-0.16624348
0.079826824	-0.08441239	-0.011825749	0.027804827	-0.0170224
0.06501687	-0.076772936	-0.04695282	0.01575691	-0.09164363
-0.019300826	0.026222602	-0.015147362	0.021726934	0.023944266
0.062361337	-0.012348163	-0.022943854	0.051402275	-0.066851705
0.039859045	-0.026443148	-0.028993642	-0.029489923	-0.026642323
0.100860216	-0.09441867	-0.11746229	0.12895449	-0.10539163
-0.049537458	0.0038455017	0.0037638173	0.0033385754	-0.04993845
0.013598745	-0.09616282	-0.017940592	0.08683861	-0.04720954
0.066391304	-0.0637176	-0.06900266	0.01983008	-0.07339941
0.02657335	-0.0630606	-0.08448126	0.01929248	-0.03269642
0.022884574	-0.025015522	0.009889353	-0.030827213	-0.037989102
0.044254716	-0.09771116	-0.06818464	0.01307299	-0.069108404
-0.0009823665	-0.022846866	0.03107759	-0.0025651231	-0.044333994
0.1637919	-0.18083812	-0.19635655	0.1120991	-0.139968
0.061677605	-0.106488355	-0.1250415	0.09337558	-0.083865866
0.12871207	-0.08447466	-0.12821434	0.11684348	-0.08484142
0.1053449	-0.061346292	-0.11309758	0.11665639	-0.087555766
0.04761759	0.026440468	-0.013375044	0.038168076	0.009823598
-0.028154721	0.011187422	-0.030549712	-0.0028629166	-0.046106856
0.013257582	0.01810926	-0.01746351	-0.008638726	0.043269623
-0.050771188	-0.023690673	0.01803379	0.03523244	0.02480738
-0.0020866396	-0.014731278	-0.02054766	-0.024056666	-0.025391283
0.032035436	0.01067983	0.0029267073	0.04748552	0.048723985
0.15164527	-0.04601211	-0.07362709	0.13971208	-0.13207255
0.024127763	-0.027621541	-0.020627894	0.06596181	-0.079375334
0.016657107	-0.021269543	-0.06988287	0.015413156	-0.097306795
0.05542094	-0.072938725	-0.04063611	0.0604545	-0.06848368
0.06531192	-0.01950484	-0.0135154575	0.058600955	-0.061831184
0.014821185	-0.082287356	-0.08993226	0.0516108	-0.049083564
-0.002180861	-0.05656841	-0.075572096	0.032701604	-0.060821332
0.02311838	0.008460522	-0.032961823	0.011109255	0.049179684
0.057896823	-0.06339626	-0.045131005	0.053701326	-0.072354615
0.0903425	-0.066731974	-0.03322799	0.024406137	-0.0002850996
0.034614656	0.042736482	-0.022908175	-0.048647106	-0.026986456
0.0888612	-0.07513287	-0.01935188	0.027095895	-0.07983255
0.04190374	-0.028987369	-0.07488768	0.043129608	-0.096010886
-0.030829525	-0.0039348006	0.03797536	0.026824143	0.04904599
0.121626705	-0.092212476	-0.11515901	0.097005695	-0.051051136
0.073266506	0.0001435222	-0.053091496	0.035956476	-0.062974535
0.126447	-0.11776661	-0.12102247	0.0723419	-0.109998055
0.044971127	-0.03378943	-0.07548061	0.037834056	-0.02537524
0.02962968	-0.048550196	-0.07981696	0.0381595	-0.09172281
0.04833783	-0.028523838	0.042775538	-0.005463399	0.017787706
0.005530795	0.04246924	-0.013313477	-0.038507447	-0.024296528
0.013331132	-0.005973251	-0.026295401	-0.03572679	-0.021763725
0.049472835	-0.03796972	-0.049290754	-0.0310619	-0.006810285
0.041584264	-0.06439789	-0.034395646	0.07249839	-0.008100879
0.012110439	-0.049562894	0.015880018	0.011087116	0.01902561
-0.03410882	0.009730405	3.4421708e-05	-0.039302442	-0.04575344
-0.026944516	0.018313337	-0.015787436	-0.0042033526	0.010486644
0.04960208	-0.049061455	0.033074405	0.003211081	-0.04070307
0.04129774	0.0057368292	0.0025241403	0.009528856	0.007783978
0.0023160377	-0.016598018	0.05468623	0.014218656	0.009349121
0.03811156	0.00074629637	-0.023563672	-0.017982729	0.00986775
0.05940691	-0.036536794	-0.017101338	0.033926617	-0.07064011
-0.0006751017	-0.0841149	-0.06389703	0.016187333	-0.05515867
0.03540513	0.0003728349	-0.03853948	0.069565795	-0.07255904
0.030392412	-0.016227044	0.047876645	-0.034689974	-0.013275694
0.013651569	0.04316474	-0.049461726	-0.025995206	0.007350553
-0.011442835	0.00024233894	-0.03488932	0.021432456	0.0098417755
-0.0428507	-0.0155783845	-0.021182198	-0.012461404	0.012444663
0.14064915	-0.18488623	-0.17563492	0.20047987	-0.11354532
-0.048888136	0.016977224	0.038883995	-0.044916775	-0.043386187
0.12793751	-0.13419203	-0.14599796	0.20504014	-0.11668484
0.09117856	-0.14614995	-0.082033396	0.13974163	-0.08327286
0.11709645	-0.032337625	-0.115667395	0.12070381	-0.08765456
0.08161821	-0.08129949	-0.13478275	0.051800087	-0.12010489
0.13964626	-0.03433537	-0.063199945	0.13001616	-0.10881651
0.11278155	-0.10221753	-0.09302406	0.08011762	-0.10452089
0.14423618	-0.07546148	-0.06379593	0.12379637	-0.06527281
0.023162765	-0.053301714	-0.012055903	0.060375642	-0.068436
0.024943389	-0.052615635	-0.04504706	0.05635549	-0.039384715
0.04815777	-0.077255696	-0.044335354	0.065908134	-0.052102204
-0.037225146	0.024151048	-0.023607261	0.006667538	0.0071095224
-0.049752165	-0.035036433	-0.02784183	0.04279084	0.032922734
-1.2447042	1.304999	-1.3286175	1.2930207	1.3039732
-0.04373307	0.031235758	-0.01619514	-0.03164293	-0.009549569
0.0070235687	-0.041145194	0.033417698	-0.015797503	-0.021733265
1.6621941	-1.6636989	1.5934515	1.6498053	1.5900465
1.6053267	1.5450332	1.6289288	1.5960531	1.6096963
-0.00152912	-0.010668687	0.022219164	0.028134232	-0.044419136
1.5851743	1.5833395	1.5763363	-1.5587671	1.5700185
1.6408136	1.5704297	1.5944453	-1.5666506	1.5922197
-0.047636162	0.0408643	0.020814452	-0.008744001	0.0027497038
-1.5516813	1.6355656	-1.6146829	-1.5565566	-1.6129681
-0.0038940918	0.016313368	0.016157221	0.020622056	0.016555376
0.03951938	-0.010898363	0.04770715	0.00381317	-0.038359236
0.027658213	-0.003868483	0.042422127	0.038819704	0.049759496
-0.9647045	0.98123884	0.98366815	0.8940699	0.9699818
1.5998944	1.6213113	1.6126323	-1.6201483	1.560989
1.5751349	1.6118481	1.611031	-1.6626781	1.615646
1.6122189	1.6100903	1.5884042	1.5748202	1.597862
0.027765658	-0.009504877	-0.03297286	0.047858123	-0.010397017
1.6448251	1.6506649	-1.6610471	-1.6267929	1.6443036
1.5790305	-1.6041956	1.5675238	-1.5687013	1.5585791
-1.5823313	-1.5651104	-1.5243933	-1.5422398	-1.5537269
1.5638834	1.5771486	1.5892482	-1.6078197	1.6034454
1.6131716	1.6145666	1.6092405	-1.5698751	1.6006687
-0.049857438	-0.01574234	-0.044497024	0.015161011	-0.00077562407
1.5676019	1.6098418	1.5839884	-1.6467459	1.5676038
-0.047395684	0.036235128	0.04952817	-0.029743314	0.0008032918
1.5822994	1.6219895	1.5740682	-1.6010402	1.6267716
-0.03728353	0.007683277	-0.0038285963	0.011713147	0.038879726
1.6344496	1.59748	1.6039374	-1.5961218	1.5837809
-1.6035138	-1.6078905	-1.619005	1.5617106	1.6200893
-0.04159124	-0.009393908	0.02950013	0.020783398	0.010515939
-0.1247452	-0.12601784	0.10822441	-0.05471445	-0.087742575
-0.45722127	-0.41144553	0.41718274	-0.449586	-0.44804376
-0.34641904	-0.39628375	0.4004576	-0.3447519	-0.35566363
-0.1802968	-0.15410328	0.14368162	-0.1645599	-0.19834255
-0.25085843	-0.25504777	0.265049	-0.23181468	-0.29741195
-1.5177654	-1.5054574	1.5443823	-1.5633868	1.5539653
-0.30481625	-0.34460115	0.3408073	-0.28173074	-0.29237324
0.013573889	-0.018530227	-0.045551445	0.028542425	-0.0032501593
-0.34118292	-0.3310141	0.31075898	-0.33418187	-0.32794484
-0.32239968	-0.29126292	0.32851312	-0.2681676	-0.3520046
0.042830776	0.04485536	-0.013420962	0.014024738	0.01537459
-0.047698963	0.038137462	-0.047679722	0.04193897	-0.0070675015
-0.055141952	-0.09562249	0.034256462	-0.036391795	-0.0811454
-0.25653678	-0.25247648	0.28867206	-0.29714605	-0.2854962
0.026735675	-0.047218192	0.04529872	-0.006837856	0.034519028
-0.044659026	-0.03465525	0.050532885	-0.058380097	-0.118172005
-0.23470117	-0.22549605	0.22633067	-0.15230146	-0.20192663
-0.098874226	-0.028850833	0.07578733	-0.061931666	-0.044112768
-0.049981687	-0.060589872	0.017760355	-0.064732924	-0.10265086
-0.09013381	-0.017326346	0.059933417	-0.031016476	-0.033059094
-0.18699805	-0.18991481	0.23618704	-0.2310491	-0.2501126
-0.25256783	-0.255531	0.17269231	-0.24647959	-0.18918997
-0.20874262	-0.19707692	0.2776228	-0.17611153	-0.24860331
-0.203628	-0.22561534	0.22024165	-0.22819349	-0.23651078
-0.2275998	-0.17730151	0.20697233	-0.21964611	-0.19825588
-0.0060337074	0.031692434	0.0027236566	-0.030969834	-0.049402177
-0.17390262	-0.22468367	0.2153335	-0.19080071	-0.23121311
-0.2521723	-0.2683099	0.24916252	-0.29820848	-0.23734485
0.0066597834	-0.0357519	-0.037988055	-0.00328096	0.018532839
-0.1809852	-0.19891411	0.26376802	-0.18355682	-0.25077325
1.6136267	-1.5766279	1.6402336	-1.5626551	1.6340768
-0.2948229	-0.2949112	0.22446279	-0.20955683	-0.2841585
-0.2862702	-0.21244414	0.2820886	-0.26467255	-0.2659596
-0.3033693	-0.2700376	0.29520744	-0.26050785	-0.24306075
0.04331765	-0.03343463	0.023303952	-0.029289544	0.04761697
-0.25919482	-0.21079272	0.22584106	-0.23446698	-0.17898293
-0.1932145	-0.23227605	0.21737202	-0.21782716	-0.24590199
-0.19116282	-0.25025353	0.20139693	-0.20785268	-0.25355434
-0.19379456	-0.24034879	0.25662327	-0.17784232	-0.2512591
-0.19357534	-0.25460884	0.20756257	-0.2616654	-0.19285882
-0.22141127	-0.23039621	0.23909242	-0.21671677	-0.20645446
-0.016602945	-0.046502125	0.024149705	-0.0044302456	-0.0013009533
-0.026090814	0.047729317	0.032373715	0.042202022	0.013707649
-0.18674773	-0.15896934	0.15049037	-0.08381621	-0.18513626
-0.19327232	-0.16362987	0.16880935	-0.17410064	-0.14125347
-0.25897184	-0.22648531	0.1905734	-0.22470185	-0.20688911
-0.18067405	-0.12946258	0.19197899	-0.1587563	-0.17449178
-0.26220325	-0.17046379	0.2058106	-0.21626785	-0.19663233
-0.007041134	0.030698586	-0.037279665	0.03134123	-0.022020115
-0.15137473	-0.12091752	0.20868926	-0.1941338	-0.15911616
-0.16964771	-0.14330666	0.15820712	-0.17542751	-0.19392462
-0.07762706	-0.11963914	0.09379792	-0.09878807	-0.11263006
-0.108155444	-0.0934163	0.035356265	-0.019270418	-0.049884897
-0.057181038	-0.11156496	0.04677072	-0.040380415	-0.044948284
-1.6334105	1.6327516	-1.5944694	1.6321788	1.6399652
1.5385433	-1.5938222	1.5560588	-1.5798031	1.505688
-0.023149872	0.02160341	0.03620449	0.00031686947	0.039754737
-0.66453975	-0.65485144	0.6272507	-0.6251845	-0.62893057
-1.5505856	-1.6136506	-1.6307143	1.6287451	1.6367906
-1.5926557	1.5406994	-1.5273358	-1.5939585	1.5766428
0.042731274	0.00010811165	0.034032915	0.047323275	-0.0465387
1.6303957	-1.6508373	1.5940299	1.5917568	1.5840971
1.6571236	1.6112975	1.6047896	1.5583785	1.609398
-1.6191005	1.6756449	1.6556792	-1.6694075	1.6625009
0.008800918	-0.0347069	-0.018508727	-0.032744255	-0.0071550077
1.6018119	-1.5248436	1.5217842	-1.6037539	1.5248935
-0.011450015	0.013720643	0.031479385	-0.032642856	0.049674246
-0.030856026	0.043293323	-0.048002373	0.014751468	-0.037165165
-1.5649512	1.6372116	-1.6393981	1.586768	1.5783024
-1.5611614	-1.5788335	-1.5979676	-1.5313572	-1.5457733
1.6486553	-1.6395936	-1.6145886	1.6404899	-1.6449742
-1.5764376	1.572307	-1.5651914	-1.5524406	1.5769178
0.018800054	0.0060318597	-0.012435533	-0.031149745	0.012145184
0.023752283	-0.031393636	-0.037034236	0.011103131	-0.043007623
1.585165	1.6045645	1.5968643	-1.5913125	1.6221739
-0.0010184273	0.044115435	0.037013505	-0.0007387996	0.018744636
-1.5189698	-1.5235684	1.5019356	1.5027795	-1.5033164
1.600411	-1.6151221	1.5676626	-1.60759	1.5986875
-1.6712699	-1.6156974	-1.6399988	1.5994251	1.6369792
1.5867877	-1.6000812	1.6221744	-1.6098726	1.5801741
1.5351757	-1.5554641	1.5286355	-1.5187606	1.4604595
0.010341484	0.000589888	0.021802701	0.022197254	-0.03274954
1.5636374	1.6170131	1.6164062	-1.5749131	1.6055053
-1.5878525	-1.5979074	1.6097493	1.6415391	1.6439142
0.0248646	0.008818907	0.02083295	0.011886349	-0.019946938
1.6137578	1.6042905	-1.6314763	1.6340152	1.6234207
-0.55396396	0.51366276	-0.50543684	0.5188939	-0.49752972
1.6504797	1.6372852	-1.6183107	1.6073145	1.5911232
-0.020640483	-0.027779598	-0.03462035	-0.024786474	-0.0028011012
1.6101494	1.6197147	1.6442046	-1.6101884	1.6414542
-0.028203344	0.014896754	-0.0036562085	-0.042609204	0.015472088
-1.6292354	1.6198218	1.5845082	-1.6602457	1.6508346
0.04065473	-0.042681467	0.03406978	-0.023699094	-0.028955877
0.25996694	0.29933402	0.30426311	0.3076327	0.2536146
-0.043712463	0.018756513	0.039460864	0.004507661	-0.044137966
0.24920817	0.2887161	0.19868544	0.28273597	0.2776434
-0.03756099	0.041616287	-0.015365254	-0.00048041344	0.029050771
0.29603967	0.20759691	0.28997377	0.27597708	0.22167939
0.14760749	0.19897987	0.23146102	0.22377048	0.2124035
1.6530687	-1.638221	-1.65769	-1.6030709	1.6303675
-1.5480348	1.5971748	-1.6062647	-1.5988072	1.5487328
-0.013746302	0.01267237	0.029187495	-0.034253918	0.02671404
-0.5316933	0.54689306	-0.5621416	0.5612881	-0.5516603
-0.04420631	0.013835322	0.014801804	-0.028719628	0.015750412
0.016752565	-0.0072510308	-0.024654813	0.04141506	-0.021500053
0.021501806	0.012068175	-0.049535822	0.04197217	-0.043165028
-1.6026438	-1.6327049	1.6434302	1.6024685	1.5936155
-0.3439485	0.34770146	-0.40631378	0.36002776	-0.41375363
-0.34542462	0.33058935	-0.37520862	0.38100255	-0.30718413
-1.5028926	1.5550948	-1.5213379	1.5169857	1.5657141
-0.3972111	0.36979607	-0.3764507	0.35916257	-0.4139906
1.6086993	1.5552491	1.5921499	-1.6182843	1.6198033
-0.37642643	0.40187117	-0.3604399	0.39531937	-0.38569912
0.025392357	-0.009572733	-0.03652761	-0.028787911	0.018146168
-0.032129005	0.001457382	0.018252384	-0.029229391	-0.049075138
-0.043827366	0.03640416	0.03428543	0.0345842	0.0050367825
0.5421377	0.5055075	0.5216559	0.5050808	0.48539096
0.5155308	0.43437055	0.5298529	0.48938158	0.49981987
0.45182374	0.42004445	0.43536216	0.41741666	0.41020462
0.23040512	0.16886708	0.17776424	0.21993661	0.21406561
-0.031443372	-0.0028200261	0.04036354	-0.026247645	-0.024306107
0.11961492	0.16743727	0.12472017	0.09237136	0.15715681
-1.5534022	1.5439397	-1.5965946	1.5173662	1.5477688
0.021317612	0.008422207	-0.028413236	-0.00390774	-0.01286155
-1.5276321	1.5469544	-1.5488366	1.5221752	1.6025124
1.6145636	1.6577772	-1.6035999	-1.6475754	1.5878366
1.5991237	-1.5642126	1.5397848	-1.5485383	1.5145164
-1.6301184	-1.6039853	-1.5656959	-1.6545032	1.6027344
-0.0015872233	0.034969006	0.021650005	-0.012337685	0.021178637
-1.4805168	1.5116997	-1.5156237	1.5019531	1.5126659
1.6469768	-1.6133974	1.6316897	1.6034858	-1.6577657
-1.5930341	-1.6292574	-1.5890539	-1.5838449	-1.5312872
-1.5613952	-1.6292017	1.5602031	1.6584543	-1.6094254
-1.5241612	1.5325166	-1.5686146	1.5711796	1.5121511
-1.5375727	1.5622319	-1.5563341	1.5457453	1.5607377
-1.6085845	1.5808246	1.6061153	-1.6239944	1.5509413
1.5839301	-1.5848864	-1.6647882	1.6458503	-1.6054982
-1.5939606	1.5500971	-1.5792958	1.5414364	1.5600795
1.6120574	1.580212	1.5611795	-1.615199	-1.6071172
-0.0027453527	0.029030468	0.0327554	0.023098443	-0.04770739
-1.601045	1.5894293	-1.5662862	1.5418575	1.6127889
-1.5962644	1.6032366	1.6343576	-1.6055393	1.604941
-1.5822871	-1.529692	-1.6216123	1.581323	1.5817109
-1.5146645	-1.5344037	-1.5229254	-1.5749794	-1.6028894
-1.624325	1.5925283	-1.5624541	-1.578677	1.5896958
1.6007558	-1.6540897	1.573884	1.5723323	1.6059226
1.6588644	-1.63556	1.6353285	1.6331075	1.6122866
0.026291396	-0.034520745	-0.012948535	-0.009319402	0.005990017
1.5727274	-1.5626873	1.6379751	1.5990641	1.5819255
1.5513034	1.6167753	1.5839473	-1.5510719	-1.6065283
-1.5534457	-1.5402598	1.5677699	1.5819914	-1.5398357
1.6210341	1.5808495	-1.6423879	1.6635498	1.6056509
-0.046250593	-0.007943977	-0.03428589	-0.039998733	0.03650317
-1.5798677	1.6148785	1.6078343	1.6308466	-1.5647008
-1.5704613	1.5923893	-1.5996977	-1.5366114	1.5636017
-0.02544402	-0.0026368499	-0.046429183	-0.012942217	-0.042815056
-1.4673017	-1.4695176	1.5195795	1.4731953	-1.512976
0.0038711652	-0.012616765	-0.01368786	0.034865167	0.03144901
-1.4830806	-1.4535302	1.460691	1.484429	-1.5057938
0.043550935	0.024860892	0.013854954	-0.012159802	-0.011639871
0.010222924	0.021168582	0.019516185	-0.031730693	-0.017989088
1.1722311	1.1788647	-1.1623149	-1.1790309	1.1719885
-0.026825598	-0.057543818	0.03112404	-0.008451566	0.026971972
1.5760022	-1.5682931	1.5931939	-1.607074	-1.6317197
1.5277442	1.5469213	1.5585365	-1.5262718	-1.5218226
1.1327229	1.1332003	1.1720697	-1.1453365	-1.1294602
0.010704394	-0.041752364	-0.020881763	0.0022342638	0.013429988
-1.5898602	-1.6084739	-1.5427849	-1.6249275	-1.6113247
0.04460745	-0.032261692	-0.04295628	-0.01729256	-0.0202829
-0.038486384	0.019833233	-0.014328979	-0.04479773	-0.036615204
-1.5715274	1.5892746	-1.5935578	-1.574348	1.5741462
1.5836394	1.5327085	1.5356834	-1.5658177	-1.5850031
-1.6257524	1.6428912	-1.6169729	1.6261004	-1.6096075
1.3702905	-1.4130638	1.3974718	1.3264778	-1.3553766
1.2665584	1.3124839	1.2771327	-1.3044797	-1.3067753
-1.6878738	1.6010146	1.6340172	1.6569561	1.6536871
-1.6558039	1.570212	-1.6003594	1.6138092	-1.566758
0.016777998	0.0031718223	-0.005478819	0.012859903	0.005213972
-1.4926246	1.4719577	-1.5453563	-1.5274591	-1.5160904
-1.6277184	-1.6069402	1.5899731	-1.6505129	1.6210145
-0.032805637	0.02550402	-0.020970559	0.049080107	0.029559959
-0.027096665	-0.007362116	-0.028029395	0.028798807	0.028266083
0.018181901	-0.021068305	-0.0145330615	0.0058207507	-0.020765126
1.5617477	1.5093515	1.5308326	-1.5708182	-1.5655841
0.14232637	-0.18506585	-0.093925394	-0.15941532	0.048668396
-0.008312572	-0.033222377	0.012285493	0.049773883	0.0042500123
-1.5859752	1.6114043	1.5948834	-1.627667	1.6011307
-0.015479615	0.008297256	0.015974006	0.025289243	-0.0077832225
-0.00463859	-0.04133339	0.034677196	-0.042763617	-0.027579917
-0.020057917	-0.038108505	-0.026244545	-0.049308386	0.0075643547
1.5535814	1.5505978	1.5840682	-1.539329	-1.5741957
-1.5641313	1.5682144	1.6250297	-1.5394974	-1.6111083
1.5031662	-1.4644326	-1.4608166	-1.5084916	1.4643883
1.0027335	-0.9672046	-0.9582746	1.0113746	1.0084008
1.5262072	-1.5314323	-1.5679269	-1.4566754	-1.4841515
1.615941	1.6225423	-1.6071317	-1.6013769	-1.5860717
0.021830209	0.008251056	-0.025444152	-0.0014749442	-0.028859386
1.5204016	1.5290456	1.4972284	1.5527571	1.4725084
-1.0715944	-1.0342317	1.0851389	1.0205764	-1.1082028
-0.047483195	0.028750781	-0.0020966642	0.016471718	-0.005323697
1.2381119	-1.2380152	1.2582428	-1.2909311	1.270132
-1.3954109	1.4206716	-1.4174643	-1.4688219	-1.4096894
1.1651256	-1.2124963	1.2198296	-1.2314141	1.2194504
1.3994237	-1.4521655	-1.4445094	-1.4041973	1.4418933
1.4929849	1.4951166	-1.499958	1.497194	-1.539667
-1.6245427	-1.568008	1.6005481	-1.5753988	-1.5777632
-1.3542845	-1.3753529	1.336679	1.3547493	-1.3917012
1.2408322	1.2569085	-1.1808041	-1.1637971	-1.2146684
1.340041	1.40792	-1.3814777	-1.3206596	1.3329644
-1.6441318	1.576359	1.639152	-1.5290139	1.5725067
-0.049760904	0.025098149	0.009239234	-0.014655031	0.017219756
-1.3100656	-1.3263074	-1.3501788	-1.2837605	1.3393905
1.2036469	1.2217435	1.2671335	-1.25357	-1.2778124
-0.45738256	0.3873085	0.3843697	-0.4706917	0.4298003
1.1679317	1.1185613	1.1124657	-1.123925	-1.2133054
-0.049886644	0.02117027	-0.03780657	-0.04907552	0.0399029
-1.2200314	-1.2338367	-1.2682534	-1.1689653	1.2396978
1.5453494	-1.5152965	-1.5519283	1.5299941	-1.5448853
1.2102896	1.1670519	1.2186933	-1.1835876	-1.1857053
1.2132186	1.1971588	1.173166	-1.1982667	-1.1799399
1.271626	1.2363645	1.2650788	-1.2490308	-1.1886905
-1.5957208	1.5801926	-1.60024	-1.6046826	-1.638318
1.1016257	1.1709119	-1.1687181	-1.1454166	-1.1045258
-0.017100394	-0.020975638	0.038548414	-0.014886688	-0.016133856
1.1253046	1.1136045	1.1322321	-1.0450522	-1.0405405
1.2605826	1.2419344	1.2310408	-1.2731785	-1.2098913
1.1557822	1.1137607	1.1458412	-1.1788778	-1.1274661
0.017714653	0.011663426	-0.034717668	-0.025194872	0.025380146
-0.04756179	-0.01699989	0.027842764	0.0017520674	-0.022384262
0.023639921	0.04397725	-0.042307008	-0.009411335	-0.045146715
-0.40992805	0.3817614	0.40630016	-0.40637204	0.3209919
-0.881961	0.89749545	0.9150029	-0.86117536	0.8403203
1.012058	1.0023199	0.98722196	-1.0296395	-0.99615866
1.4731183	1.5085531	-1.538801	1.5293574	-1.5270747
0.0014035814	0.047356654	0.026668597	0.011267699	-0.033748172
-0.39068	0.32255384	0.29730317	-0.30089214	0.35385987
-0.029604495	0.04582243	0.03669473	0.013376523	0.017695997
0.047178116	0.00075430796	0.036774147	0.04485147	0.041957486
0.025794614	0.049276005	-0.021537019	0.04533447	-0.025537718
-0.49885592	0.5018316	0.42299142	0.4209537	-0.46518183
-1.4429172	1.3960423	1.3737396	1.420914	1.4056435
-0.36888814	0.2979896	0.37012786	-0.33121768	0.36384302
1.5762546	-1.5484126	1.5638202	1.5813904	-1.5802338
0.044528354	0.016718898	0.00052846596	-0.03348495	0.027435813
-0.0133079775	0.027523626	-0.043340337	0.029758308	-0.04607935
-1.0510168	1.1437886	-1.1237915	1.1254522	1.0429918
-0.48302385	0.52017915	0.5174645	-0.46138367	0.4438277
-1.3532608	-1.3295975	1.3145477	1.339485	-1.2955439
-0.3893253	0.36308172	0.3478811	-0.34587476	0.2963641
-0.36662054	0.32309532	0.34956664	-0.33687606	0.28708738
1.371187	1.4422723	-1.3366345	1.4217669	-1.3802098
-0.36429447	0.30006716	0.33482352	-0.326512	0.3415511
1.6517003	1.5997679	-1.6130847	1.6294384	-1.6605082
1.5451336	1.5380195	1.5654662	-1.515631	-1.5042928
-0.34241876	0.33408564	0.38039812	-0.33870673	0.35982475
0.02520759	-0.0059813373	0.0077823624	-0.03899598	-0.0015228167
-1.5308199	-1.5448881	-1.5149826	1.5497772	-1.5426211
0.024032068	0.0012742169	-0.029054081	0.018422615	0.028273094
-0.356121	0.330578	0.32733294	-0.36050862	0.3684533
-1.213316	-1.1671337	1.2509576	1.2576358	-1.205023
-0.34972826	0.32424608	0.312593	-0.37132415	0.3777001
1.5592822	-1.6123685	1.5522592	-1.660566	1.6161144
-0.037095703	0.040301453	0.045520935	-0.035538934	0.048586857
-0.3792014	0.38733795	0.31570187	-0.31898773	0.3152035
-1.5323044	1.5724043	-1.5770044	-1.6008832	-1.5848405
-0.040559877	-0.044125464	0.013067339	-0.0106540695	-0.037181903
-0.6402485	-0.66830915	0.648258	0.6789217	-0.62296975
-0.0059890375	0.026600573	-0.02584908	0.005067479	-0.0011128299
-0.2880305	0.30061334	0.3300426	-0.28827295	0.26414394
-0.9734625	-1.0392312	1.0671694	0.9787521	-1.0087904
1.6205714	1.6437066	-1.6295822	1.6652701	-1.6021947
1.4690646	-1.4927523	1.4483285	1.4551184	1.4505562
